{"sizes": [784, 16, 10], "weights": [[[0.00969070300302842, -0.023259006754703482, -0.0017744272148560324, 0.005813473026738383, -0.02612734346816919, 0.000521297733689364, -0.005051677405191446, 0.00272893517867674, -0.015811954951947243, 0.001986742102180567, -0.011153120506825142, 0.0035892999365419896, 0.018204922574941194, 0.003542772323811771, 0.007368523146654375, 0.001645974200420913, -0.013052213053328692, -0.019412600585975784, 0.003764593376312571, -0.0034430712376490075, 0.004250052949093649, -0.010593160432115976, -0.011524568359999586, -0.01890072004631233, -0.011709689997277546, 0.015018746070224442, -0.011533427433219137, -0.0036101899480141266, 0.03170469221836851, 0.0022297607418442517, -0.003290837724195894, -0.009833995026684469, 0.01595754716437237, 0.013578229830126385, -0.00878109021946193, -0.004582712008841513, -0.013211932629579813, 0.0029165653066342253, -0.010553104072709712, -0.010977596690911657, 0.0029115265123789503, -0.005400937533459278, -0.018643607781358866, -0.0028583189930913317, -0.014581310760673571, -0.005740110524528931, 0.002371612178545446, -0.0065595200224263135, -0.0011063380021573259, -0.020652778233366538, -0.004466461194970574, -0.009204868712420655, -0.026081839176282286, -4.110182690406547e-05, 0.004770952224536777, 0.015004596833537017, -0.00768364802946271, 0.02126523061974842, 0.004159525287588933, -0.0024804851780057696, -0.0022092563426964707, -0.006804294853112957, 0.00012449432982146488, -0.006564814760453573, -0.0070629400319455835, -0.01638965766056196, 0.009498078816120253, -0.006545940261711733, -0.008986082299655213, 0.008435708326714078, -0.010192394130547273, 0.008782755333929575, -0.005636831921927149, 0.01647454988507219, -0.0011423095908021754, -0.005464570493664674, 0.023093684432791597, 0.0039827586628157115, 0.018993967098491382, -0.012541018143907146, -0.002907024203988149, 0.0058826324591675395, 0.02447627524031973, -0.003467863213999411, 0.007973072938470799, 0.008801696711178173, -0.02328172357579578, -0.00483923388058411, -0.008363475262526168, 0.006802003068032159, 0.012174305939140519, -0.0004766708603844025, 0.005981732961061858, -0.006911922621604418, 0.0013451221772950925, -0.013964678797539841, -0.004886573273432328, 0.027994901049615876, -0.0058857730077960324, 0.005417211279400377, 0.014137006459746727, 0.006656192017229504, -0.013377656792572908, 0.007056596801225228, 0.0015372137195046446, -0.0151816843498989, 0.00809591605646006, 0.019641846510694092, 0.007086902587575541, 0.02205132355120504, 0.00034953817097131625, -0.009361591494938731, 0.003313041509741666, 0.02200642384623269, 0.0007269305934238915, -0.01896660997500559, -0.020931432459955376, 0.009392943824300106, 0.007409572619862704, 0.006048903887582477, -0.005299148607284196, 0.012443964032878348, -0.02071324246635519, -0.009076960038576677, -0.008985206007716778, -0.017056081076320683, -0.0006654999703219943, -0.00199638943454212, -0.001936902383444881, -0.005084357947594218, -0.002756708249229251, 0.00601662636577109, -0.0028163456435335533, -0.0020836258092263036, -0.005840881258437323, 0.009625924840756181, 0.0005462534869637528, -0.005634946909224436, -0.01899776960388642, 0.002688750902895055, 0.004632505205329494, 0.01131535066854756, -0.007178959714060238, 0.0015330536152670304, 0.00784133218275923, 0.010604176003196337, 0.0111174231116556, -0.013405203006333716, -0.011438666225215588, -0.004670605377120676, 0.01170624017799251, 0.005871051860037787, -0.006432326637869456, -0.014913734981422754, 0.0002768285881914026, 0.010922644735943721, 0.0201640146389671, -0.0069531467476141905, 0.0001379080690053291, 0.0019877715338963253, 0.007166339069468749, -0.00505183826080799, -0.02615162092425988, -0.020505238242236972, 0.002542420656445895, -0.021535822529021153, -0.02037640933597276, 0.0067906097936706634, 0.008504931516150163, -0.010598240490715683, 0.01147821271045576, -0.013432957162809766, -0.0033742710789526676, 0.009641246753829984, -0.00325493211967822, 0.011791666039061498, -0.020116601327541957, -0.010884003820888057, 0.004320287053803156, -0.02378918887318979, -0.005616549175175612, 0.004008901808015519, 0.0047419785018484395, -0.003691656695876478, 0.005000051612626859, -0.003528444947137625, 0.0006282398279434502, -0.0017161205570212768, 0.011682896590523024, 0.010321700916839874, 0.010430857693435018, 0.012075150812346988, 0.00594920121986558, 0.00035241504855043306, 0.017610113621234626, -0.024185908056262796, -0.00045587359134620635, 0.0037218468040967423, 0.012608154091622931, -0.02216218587357301, 0.02341809513057163, 0.011195815700751476, 0.006313607590583746, -0.00870830067340783, -0.03803811234977179, -0.026178310560133918, -0.020839130842089146, -0.006592180703267824, -0.004491139163395782, -0.002032952860521305, 0.007147120110285346, -0.011698448962694872, 0.008221447316389805, -0.015250294752078845, 0.0028088665639537957, 0.01363628070818183, -0.02327733803708228, -0.008525753361720161, -0.020203736117471876, 0.0136660833218723, -0.010623517618898288, 0.016739848750938754, -0.01606496610918065, 0.019253291040212936, -0.007881686616877081, -0.010555665545173584, -0.015119445670578751, -0.010991622462978896, -0.016747736418604227, 0.015850632634848396, 0.01085223444880719, -0.021346632781335834, -0.020768734975761396, -0.006636841281613048, 0.004863032898610883, -0.022778211276419824, -0.017449718378393517, -0.013132209424029127, -0.0005064576700965228, -0.010955762728588529, -0.004640198633132377, -0.035056854119972475, -0.01734081547559554, -0.0002987529505481895, -0.002355738860106791, -0.02393390858586728, -0.005294536460570873, -0.005840959662463362, -0.012531086059436003, -0.005416827048965707, 0.018504656617130973, 0.007331402989996832, 0.01199910860143134, -0.013758323734427631, 0.014867939613958462, -0.010142346911464966, -0.022910628374936834, -0.02057260254708215, 0.013667461656705756, -0.027812171189435773, -0.006256420106951821, -0.005573990623232251, 0.007336222449967153, -0.0039473528591713715, -0.006045930795421709, -0.010384932074940591, -0.011676675177256601, 0.005142188637353756, 0.0042583772397617676, -0.011351894997595282, 0.020238329147948323, 0.0032737256843477685, 0.009737746797482122, -0.008236007688160933, -0.014809803848188719, -0.015932979350691334, -0.01074405880853879, -0.005385756043963202, -0.0006716897606074365, 0.004376820585187264, -0.01887711362655726, 0.022426524302538442, 0.0035792183610672563, -0.00815069558669463, 0.0031339266698097606, -0.0036986203535345754, 0.005703618616824522, 0.014004756087878125, 0.0024233981416213733, 0.018476265832162587, -0.0034678611957445716, 0.004407385054963395, -0.011884160228079522, -0.005461258425110181, -0.02080151480040321, 0.027188816176801234, 0.011625062920875097, -0.007695610551003494, -0.007319515994902026, 0.004020566419961734, -0.0017067400377625208, -0.009292447653655424, -0.015525065776391305, -0.011988976842381227, 0.004347332053570828, -0.006104984387238125, -0.013337091590120748, -0.006105780361817216, 0.02968768096242403, -0.011693505039233207, -0.030323135632018057, -0.008232286080836777, 0.001082913639577913, 0.005708754788018721, -0.004230480648559698, 0.007116190072846654, -0.01770488972512887, 0.012671636226880462, 0.004779140321765141, -1.3781380084158844e-05, -0.0148394096635406, -0.002062888453524216, 0.010259406784261925, 0.019572570099607715, 0.008214219507822092, -0.0054394687490337944, 0.014848282888599473, -0.010546198601977643, -0.012510715013870546, 0.014615670993628316, -0.014086434350989127, -0.0033376624498893622, -0.011737652891760191, -0.004418363083022578, -0.010120029723686122, 0.005306086216567249, -0.007288495940767228, -0.0087224464671952, 0.0070926824292740906, -0.0062605603829371595, -0.018856590401928667, -0.0009889210347388234, 0.0023969178723263203, 0.0035413286602495693, -0.007783331983310503, 0.008728194895275331, -0.002519009745543887, 0.0023138718581013234, -0.01277351355620805, 0.01628275158875687, 0.0019907437747043533, -0.004493848543688537, -0.003185337011378463, -0.01934844777719465, -0.01329458657332292, 0.018777235010471675, -0.0006503519951897023, -0.01353493131983735, 0.022258012128932827, -0.0002787936078296038, -0.015244291936017668, 0.014265927935698922, 0.015396461733041272, -0.010655891779924395, -0.00108993849089433, 0.011521112404546015, 0.015777863812047745, 0.006553067981078682, -0.009591237406969086, -0.014951633707944369, -0.011561135683079855, -0.016420263738482547, 0.02245276560680333, 0.0040659736750946335, -0.024533275896956808, -0.03243620073039883, 0.023507266138175817, 0.004029819453006838, 0.014620792478577109, 0.00977963879328875, -0.0014658981543382477, -0.02314689316974374, 0.004931232895640601, 0.006533166150238917, 0.030460463044690626, 0.008958531540054411, 0.006909287025855653, 0.012332296013729219, -0.020139030909216454, -0.010114064357952165, -0.015408889709856663, -0.001572527532446956, -0.002300292997027497, -0.0008927002539570615, 0.0028221485927056207, 0.00021006260008503552, 0.004291804343823938, -0.0017801038346651349, -0.011155407315936373, -0.0002324738428379837, 0.018519911626156165, -0.036858173907219335, -0.026807208798998613, -0.008597959264542066, 0.017408775910854088, 0.001969495590862301, 0.00018294622185731176, -0.027548268358535303, -0.0104542170939952, 0.007502450724132991, -0.004851664444329405, -0.0015195229359033088, 0.003157001364189443, 0.0012880849379197097, -0.006188067867737093, -0.0036221712671507993, -0.025194961865372532, 0.01651826829742367, -0.03185175718682472, -0.009361340249803833, -0.0020075911829322036, -0.01885545556471771, -0.003250586465042823, 0.013684167844189537, 0.0037456799861935023, -0.0003663436818466272, 0.013901089461301247, 0.009688166842885119, -0.014767787694383215, -0.007301807336048882, 0.0020798757401614913, 0.021641457862816627, 0.027855487762325534, -0.005558617887496402, -0.004422792789216233, 0.008018083702468105, 0.006556642899929686, -0.009002500762968109, -0.016941611000764193, -0.0033354737946692755, 0.0024523849995707254, 0.00032660204833441996, 0.011952059400931915, -0.014539376548078969, 0.00113134417798993, 0.006299650393989453, 0.008158015347817979, -0.031509822509731736, -0.018538497741426806, 0.013970887880371374, -0.0040193300613503204, 0.022102292510998895, -0.004824970172001668, -0.009412022057723471, 0.0022211490660157115, 0.0016237239827196811, -0.018372702245393873, -0.013258548162440915, 0.0004585245993922143, -0.014918961216306774, 0.009829480668275062, -0.0075015102363374464, -0.0041863289572527974, -0.023833812422778836, -0.006457030378430112, -0.001231793514655522, 0.004004968497988647, 0.002416535821399442, 0.027984553257441307, -0.0256717342351679, -0.022791959306506595, -0.007930999546283127, -0.004872110118516507, 0.003615481892500555, -0.00673452266728249, -0.0073659216719025086, 0.00016319921308276144, -0.013636382358432553, -0.0039032068929228587, 0.014459728955194076, 0.002121299765569003, -0.0198956974830965, 0.011841155765678704, 0.00035390034323908574, -0.024780733160603596, -0.002605538226801839, 0.0008366022791112018, 0.01589080578644086, -0.006000373089622137, -0.005423066335015751, -0.0042002738093553284, 0.021126801725653007, -0.007824216514228164, -0.017521319436612247, 0.0026067771406829334, -0.028007053891867806, 0.003880853702328228, -0.007665968321811506, -0.019224643239648568, 0.02038773156442754, 0.01833145003548636, -0.019052874729315803, -0.0025778163839903167, 0.020093839644676734, -0.0018805591801652004, -0.006746215103389857, 0.02866323311062193, -0.026905612577059104, 0.005016785443347971, -0.006615080034504201, -0.004018807127404144, 0.0009014475666862331, 0.01711817168201747, -0.030159114462513494, 0.006762507464222874, -0.015302353880421886, -0.011119390707889663, 0.0014288838895269514, 0.008787871576259014, 0.009903901798007663, -0.002905577669509788, -0.008375592046363409, -0.003887441379888265, -0.00967715290470771, -0.00941432342203464, 0.01823660956492441, 0.00733558768553894, -0.029465104772176943, 5.911376370487995e-05, 0.012036744835221859, -0.021000663430672587, 0.008874376466851979, -0.025201085919052815, 0.01149658464050078, -0.020945387522708636, 0.011352853376376272, -0.01911624394972785, 0.0078559632738624, 0.025515399415173414, -0.01812748679758559, 0.012302047077414972, 0.004745898083196352, -0.003532143183623023, 0.009439678959354882, -5.839369770940385e-07, -0.002081860356868974, -0.03150077873113965, -0.0011928609163681183, -0.011100412751904104, -0.008402036105273123, -0.005667860383393818, 0.0010709356059264217, 0.010052311485732298, 0.00670386166900342, -0.007023622884339336, -0.009885423836790284, 0.00254920912348982, -0.005677371902192698, 0.008222446147209699, 0.0006157217041943002, -0.0022147248777433346, 0.0036928657133429455, -0.011010935340992449, 0.009570432274182404, 0.015619949948187929, -0.004349466840147327, -0.0050264727815530355, -0.00032079353378641984, -0.00693629337754052, 0.011532473777580314, -0.02043198663421517, -0.030692422878408593, 0.011208852409281107, 0.014748601447215445, 0.005515156607917955, 0.0007056941946978171, -0.02824801742340691, 0.010179185987613942, 0.017886814146634837, 0.011657102336127066, -0.006962919047401674, 0.010732147291219825, 0.009897325461763825, -0.015608212727031797, -0.011144095195133995, -0.00657317406187713, -0.008410984719574141, -0.009647753023707559, 0.023661486425144665, 0.006182782379606338, -0.011322150221247532, -0.01608748199076488, 0.006192268630904104, -0.0056352094110066675, 0.0019340783702489494, 0.01671895260564931, -0.022347516234479625, -0.0008859236827223673, -0.0061188211606550144, 0.0034874041077038852, -0.029848817550409745, -0.02214173404093262, -0.0006373789843467878, -0.024778286910522446, -0.003053626687809239, -0.008671243819502033, -0.001116344618324365, -0.019003241484937476, -0.005649341537745842, -0.011847098736615264, -0.011186461301575766, 0.007641217521545662, 0.005579210043911877, 0.025168446539696344, -0.006466658989596043, 0.012329298707451447, -0.002029046181844814, -0.010960480471124924, -0.01384861467910871, -0.014192871327248906, 0.00374514601490012, -0.004815991908286008, -0.004942180699944583, 0.03343545348261084, 0.01298034476469946, -0.0009497388499362485, 0.0076883565411455385, -0.005442683187879153, -0.002909160245377593, -0.002575506217799407, -0.006823838890074007, 0.014231426042645897, 0.013055971225424255, -0.01914544667524916, 0.0046470205946809295, -0.018695510155430178, -0.0019950182946677783, -0.0003412095941763227, -0.008396766698641363, -0.009412526436260109, 0.009817672119852435, 0.010481862284033184, -0.010468863915587509, -0.010353076726865442, -0.027387062346289025, 0.001258376042068216, 0.005480815645812353, 0.0076845554755670025, 0.011832641274682846, -0.019926147257017447, 0.003410801037086941, -0.006318974900729473, -0.015465833534693144, -0.014226585435212099, -0.01783065402780828, -0.01963044965830001, 0.013994336652955894, 0.008730347738038335, -0.003622162677828453, -0.023109482240633365, -0.006775260905332439, -0.003005846892230877, 0.014410064134547372, 0.011976324258909847, 0.0006773229755041878, 0.0002991599055801446, 0.009004047747306149, 0.010349008536313445, 0.009419733305321518, -0.0012717937076113283, 0.002042289421419699, -0.010791423463694064, -0.015192980651980372, 0.004949429054943778, 0.008451442255789154, -0.01630651692219503, -0.0012976677210298562, 0.00043271253593842133, 0.014472099002714406, -0.018471471432728235, -0.03404766534567167, -0.01871081459920731, 0.012227011134726075, -0.012282444918303359, -0.01725708211462884, 0.025840353529283728, -0.014809683323050155, -0.01697149712466371, -0.0013048993830644562, 0.0036631342954072054, 0.01717374528898459, -0.008197788274259177, -0.011627280379480541, 0.016740314260001183, 0.026250069779366655, -0.014052689317825324, 0.0036287780735334424, 0.00450553817866439, 0.008182563257892097, 0.007715900629832368, 0.008952412778711632, 0.007073524688192808, 0.0017524056423342375, 0.011316030024498097, -0.004899008068871729, 0.003817011632585799, -0.006388010716543494, -0.010557239807794662, -8.632096072716564e-05, -0.004267234622921208, 0.00708040399089816, 0.030310797239240964, 0.003521728244364749, 0.007855252811009543, 0.004648598699378385, 0.004943856185718305, 0.0026374823166948618, -0.01248086404618224, -0.0015052507682016762, 0.00884134523336522, 0.01631021303018839, 0.0025993734187675322, -0.022758994935667368, 0.012379247318266213, 0.01042351440785075, 0.008666014475557936, -0.0304835180898101, -0.0050622966668103005, 0.022912584028255065, 0.008664581773406642, 0.019687807805152144, 0.02780314264092791, 0.0031676288581619916, 0.010751366480838359, -0.012428383618485417, -0.012380413513420016, -0.0070811596350676765, 0.015971984419216826, -0.022029622282605674, 0.019683735144348864, -0.0003610218916486006, 0.012320003462605445, -0.010808919174634607, -0.006525708967789007, -0.013592588477847816, -0.021194738660812305, -0.011062282330336345, -0.004295801095058855, -0.0015946205757596602, 0.022818279672833685, -0.002321119494649607, -0.0012820006697900098, 0.02354248844238912, 0.029453080211437718, 0.008027336768378386, 0.006860390171142281, -0.01691992589481224, -0.0036958415313444884, -0.005353430354586053, -0.024724783283820013, -0.01813710609001827, 0.012315567384294585, 0.001031506401922427, 0.029525507369933656, 0.013317816535830187, -0.009933788718914083, 0.0030986454954347003, 0.01871089523238929, 0.00855883257261901, -0.018232052696083523, -0.014030303089565828, 0.011834727180592787, 0.00996945200057215, -0.022674733912359274, -0.01669720405802619, 0.008205369357995393, -0.011290414490413936, 0.006614424350632013, -0.0119282342465554, 0.006669978686484151, -0.02004826299707153, -0.023476792512390775, 0.0018876355198847495, 0.010341482815581707], [-0.009788268968032011, -0.020558834682878856, -0.040158717378398816, -0.02127686940676375, 0.015609190658894158, 0.009477426749227611, -0.008800392824850954, 0.010900903863908453, -0.00785155233889493, 0.016366076269583252, -0.00028598118152935517, -0.036105743271768985, 0.010484184350315848, 0.012679331835956046, 0.01230235398550751, -0.007197465955410764, 0.015030046460557613, 0.0026675333585663885, -0.012537120772969753, -0.023481156336691778, -0.005412130898059915, 0.004250802713134851, 0.020361448975129176, -0.03883785648686789, -0.007534621802011603, -0.0030657360220937746, -0.0014293206867797103, 0.0019870518341508123, -0.011465566434584873, -0.005854598515304428, 0.013263821184152107, 0.0005829175075258949, 0.00029845634531338217, 0.0007441448259990288, -0.0032488952982052356, 0.02735555906430402, 0.027659570343347883, 0.049027850197414465, 0.015668593976635337, 0.03878054144762433, 0.032837651702080896, 0.03300976009297908, 0.02908793780101539, 0.007005505668837122, 0.01641976793830087, 0.03699268114176156, 0.031258291690277676, 0.05011693010676401, 0.022698539604376393, 0.02584752159167319, 0.0479233401822031, 0.016421217664974095, -0.013806437126362757, 0.0006500059023849064, 0.016968915760338116, 0.006521638726593425, 0.0013520177152135128, 0.002878492688391101, 0.0035390628071963843, -0.026314939223112628, -0.013370093031658679, -0.008970897345324799, 0.01880409001174819, 0.031058475920545666, 0.0033930364484206703, 0.009233901751046766, 0.08364785186669106, 0.011533679557377073, 0.05817409298127516, 0.07485130318191784, 0.08301001338480538, 0.04904232461549977, 0.0854475767690676, 0.06042404454618706, 0.05611809076367512, 0.08543137911279103, 0.02158797601759454, 0.028931036291240005, 0.07263922548837905, 0.0345049379333605, -0.0016258836014839781, 0.002595920275626022, 0.010121369219636309, 0.004614039512793384, -0.001129757774134726, -0.013929956623768534, -0.008633311114954863, 0.0077849118367905295, 0.0022691075964925735, -0.006670159217234884, 0.06657028702582195, 0.01977807282020142, 0.006338520366866105, 0.049455182859463605, 0.03764853543480063, -0.018576622937018474, -0.054552829082750894, -0.05150499727728794, 0.0726248631795878, 0.12019620219467403, 0.10326301650589673, 0.08603344577095859, 0.1402731423478338, 0.11826901458005643, 0.060015638425406144, 0.0597245063177777, 0.09839917791672026, 0.09187977064660753, 0.04759487215968362, 0.0007510603650972872, 0.025471395593481844, 0.010884899497023376, 0.010063785314916793, 0.007074410258604483, 0.012324453281132049, -0.0014055518030653574, -0.005119367308107424, -0.014046117494455276, 0.02415105148036432, -0.05598371379048883, -0.0981502893987715, -0.21422726947595122, -0.1296021719681624, -0.16495201551009445, -0.07486818066059286, -0.05353348307452574, 0.008221662448636544, -0.08949174406714715, 0.007901868385865983, 0.06993367700533967, 0.003549843118114198, 0.21134023936674737, 0.12566927609066164, 0.17180264222174732, 0.22050275525216503, 0.1478636940189477, 0.040775135603484655, -0.012322059233492461, -0.04638175570378507, 0.013046328549955554, 0.005628496332124852, -0.022069465645662166, -0.006236471381116279, -0.01853595918134019, 0.0018099864044968208, -0.09987863281365349, -0.029104671391454572, -0.07449303226855067, -0.10507260377013813, -0.046417475316473486, -0.025337072139585585, -0.15705756163553983, 0.0040330168422997885, -0.253965784865139, -0.1056268087956743, -0.027937860541892158, 0.006003695434297003, -0.027224097667392626, 0.0348408008717297, 0.018419216824290034, 0.03055569110306876, 0.052090872772139446, 0.071413256740959, 0.14476297847318115, 0.05854314448068244, -0.018740785182126844, 0.013251437199583424, -0.0019906441001526524, -0.009793386343327187, 0.009714733971088171, -0.012949410768218325, -0.02426410038724903, -0.006446906825192754, 0.018090537723673028, 0.059951628877713936, 0.08085088677302624, 0.010545923301892147, 0.06433091797581024, -0.13978807807079918, -0.2369239749056112, -0.17501112299180302, -0.14579094094725026, -0.3123458630627088, -0.12604856390101077, -0.24425267816011118, -0.1296222561551016, -0.27934339023554244, -0.08381478658897387, -0.1672646543782263, -0.0714686700255991, 0.04410083655053294, 0.10500060049218937, 0.00871942134736441, -0.05591163746449341, -0.0031364545679418163, 0.016954466232157853, -0.008972695957504608, -0.003423349395104191, -0.019965480214097466, -0.061880066233644074, 0.008791040184693445, 0.07607055541092438, -0.08418208684750417, 0.029099139612572163, -0.07259673303550251, 0.013768385065028822, -0.06964605849365106, -0.11444509631158298, -0.2542505275568691, -0.10249167669351324, -0.1331051263743538, -0.08657464416784405, -0.16859284215536474, -0.04442449562257356, -0.15432696366257823, -0.14876831313453542, -0.137847700159105, -0.1602772471495809, -0.03722553605364489, -0.05162322538947719, 0.10095552838176546, -0.05883727125849757, -0.029281319411009563, 0.01539383627428407, -0.010600976176304438, -0.015671952570050586, 0.021963596809319696, -0.01743134414155246, 0.014262214692050829, 0.037027539908750386, -0.03210811729728146, 0.038380028683960246, -0.21998251173356517, 0.012770313024743733, -0.09359075641449716, -0.04237041216651819, -0.17823317899308522, -0.10590785279059077, -0.2570601079655507, -0.14642945428143306, -0.2667160697901461, -0.07874616311388241, -0.1840556939151392, -0.17851994785720093, -0.12097425890229091, -0.12723316807175233, -0.05808929699236643, -0.03151853660692675, -0.08766515964661162, -0.02061869017005207, -0.05569067032883553, -0.02417352039534134, 0.013250970491916338, 0.0027300772344197688, 0.03452998232928424, -0.06383488368779011, -0.06624471428017441, -0.00539434040656408, -0.08827788345023765, -0.08108331317130962, -0.09168354766481741, -0.12194235937606006, -0.08982881472921085, -0.09306071050891154, -0.10588864051986917, -0.12653209217424494, -0.18522851653078756, -0.15957166684727317, -0.026653696896280207, -0.1177080772902782, -0.14321375088025887, -0.09421524820390348, -0.051395999704489354, -0.024910865315807208, -0.1721845083776558, -0.2086280920242537, -0.16976393679057422, -0.1637265726150695, -0.08346654560729463, -0.012634521100288787, -0.022778394628363445, 0.0062763438324033435, 0.012677327763694892, -0.04918570595920287, -0.0482023301031449, -0.027774748706865488, -0.15642634390033203, -0.050422575798165475, -0.014907457379010931, -0.08892633429359904, -0.06808362141834622, -0.09475785264615902, -0.09374645803744004, -0.05031818448759267, -0.2590371924819677, -0.04163730624690603, -0.1545559550858405, -0.002353028270697132, 0.005709835754812743, -0.10661606533496011, -0.12178545733128342, -0.1308319971597764, -0.0861253427081935, -0.2881396179111415, -0.1392212052593097, -0.15471434179545576, -0.03184091269451388, -0.014375520540760016, 0.015628757042136704, -0.0008856034153741316, 0.015573735480346918, -0.039758830396658715, -0.017256104641401676, -0.0530503588654415, -0.061014465731643354, -0.13468223482223382, -0.04235918356924321, 0.03187463563126352, 0.018260440822483702, -0.054336188871724735, 0.04289319253764904, -0.07505235916086138, -0.17515737597768538, -0.05207726604600565, 0.09326359913128512, -0.11883093697518209, -0.12133488811807229, 0.048752757658962885, -0.09589050747200119, -0.02260418294428309, -0.10273603332597253, -0.09894787198366448, -0.15325406047955525, -0.15407815374523579, -0.11132750693121503, 0.011421295843385595, 0.0036658479019153123, 0.017900482538530577, -2.8252629792304153e-05, 0.043701034268969645, -0.1369109697940734, -0.1270385469790944, -0.055786979694401044, 0.04654213377694049, 0.1645600723111157, -0.0253784363032045, 0.07969935954901429, 0.17134956286088546, 0.14853545019592143, 0.1377968750740611, -0.1711787006131587, 0.010166709013998142, 0.090483284174569, -0.0409749895550085, -0.017707359565610637, -0.05003557344321292, 0.00204546421124735, -0.043100350799812594, 0.0182997180823426, 0.07748607051254627, 0.1582657770403279, -0.08862820503219566, -0.08567418698477866, 0.00319358664237714, -0.004337801298015221, -0.003966008536667238, -0.016975662600978943, 0.009061734906850208, -0.07945299988332301, 0.010160512562937532, 0.15525567175478253, 0.05218583108412138, 0.005378411194886451, 0.12743723999139406, 0.09268860077757307, 0.151649002395104, 0.1692346111864028, -0.03337209922947617, -0.09388086848715989, 0.14851808897216845, -0.09653388370185055, 0.06263166129292426, 0.04516001355207461, -0.011946401756151996, -0.06295465549847906, 0.08907692636114688, 0.07013893895892623, 0.22336501138086845, 0.21480342558618268, -0.0523139110519765, -0.03812563217420622, -0.03764116766101384, -0.00936094483377765, -0.02569910013543943, 0.004382804693001874, 0.051011887950446325, 0.04350155191722639, 0.18571908042982332, 0.10143558195279986, 0.11947433428374221, 0.03466513026195947, 0.20707738151090135, 0.1062610738860639, 0.31364794714662764, 0.29301078561561994, -0.06620907822876916, -0.08983677486685376, -0.021715358985128594, 0.1502833796957451, 0.09292374116973935, -0.02371562362936315, 0.08203323257706889, 0.07118551026502232, 0.06964562117557269, 0.1078588334244476, 0.13709452774784917, 0.11711335685705164, -0.010469184616985474, -0.04505604739249952, -0.0070944624492603634, -0.0025638050528549662, -0.021329558539179436, 0.006990978160378408, 0.10750914562863342, 0.015767561664132942, -0.008234652670878868, 0.14854523293481428, 0.15429885185353753, 0.11742579403865311, 0.1053247579942625, 0.013258617387074598, 0.09101745312411663, 0.17680346701046587, -0.004149276608620383, 0.06342758213866263, 0.015943768436168036, 2.706168548793279e-05, 0.13235434636327875, -0.0225300332179209, 0.017995260255360995, -0.047208726710682734, 0.05523082469249535, 0.07623598941760905, 0.07800345552700101, 0.0515568006278921, 0.016594585610371717, -0.0860704521714775, -0.005380646565553631, -0.017619300086051656, -0.012727357693967569, -0.02276452276599963, 0.03351408301732027, -0.09252420238931282, 0.07263278939108997, 0.093295063486592, 0.12150810628628095, 0.013144574858742694, 0.0960230194185552, 0.0745732808969458, 0.15896393950900017, 0.012626094348774784, 0.13714524415394605, 0.040115718172215, 0.10146020909870322, 0.16300246783481132, 0.027365713459954994, 0.09501985730723791, 0.16176005896605328, 0.1361309163720646, 0.13911917541118338, 0.041334390925845794, -0.0051441629880740435, 0.04509170375840691, 0.0037605524469355683, -0.09731165918611395, 0.0024613877845646986, 0.000495655755812966, -0.0014854261088801625, -0.019150921381812236, -0.05728985552585319, -0.10954357728194425, 0.007774263705321709, 0.139177384083636, 0.09848158276614163, 0.08072181461947123, 0.06894444543957566, 0.08602140626506012, 0.1564466541869018, -0.10804749311813096, 0.05322493527709816, 0.035053180167321674, 0.056602056192055786, -0.03299958940707447, -0.04131029189252979, 0.08873176132037404, -0.06729261894920892, 0.005289891535341023, -0.015186122874588792, 0.05177658361059654, 0.024636615566853173, 0.00605220952093829, 0.0013899616232590228, -0.05957962572520286, 0.015188023177708027, 0.029796402880322894, -0.01699274977598662, -0.010358427153936074, -0.04411800644260702, -0.12463272680420957, -0.08253364122363, 0.010447938750088733, 0.12688821095313013, 0.15755237290678956, 0.034449959038017904, -0.011823471983723233, 0.009706435551945811, 0.2462123106253385, -0.02960317595056616, 0.12180999415687327, -0.056386146234610954, 0.07724271332635775, 0.015908670243017557, -0.037651741176273394, -0.05394065097453023, -0.14901380779007153, -0.0012083685286880582, -0.1477205420696184, 0.004737181305945922, -0.012404215964877788, -0.05159154287616144, -0.03518800276744069, 0.004282989063053527, -0.008615350782138922, 0.0035156273765800847, 0.024218477478490767, -0.031100320655143645, -0.10566128061015674, -0.16311323722662785, -0.10232671420309977, -0.10449669805892052, -0.10328898698432676, -0.0766017021117022, 0.02333924905560663, 0.24789185608122616, 0.042955034633205685, 0.04468419836136779, -0.06741215486738643, 0.026573959867918676, -0.045704182716043165, 0.09326843971963598, 0.0010873302420278297, 0.007752707670743107, 0.038333168877107415, -0.04759529309023606, -0.1298063265408158, -0.14577174709533056, -0.054455555351209835, -0.09002245584077308, 0.005821834152176591, -0.005606399313510588, 0.008853924054721645, -0.011579133389243774, 0.017706167593519995, -0.026957797182345585, -0.1494039137539039, -0.21775570035749228, -0.20792288744510365, -0.18608128513829741, -0.22603550461632171, -0.07270869956284455, 0.09480946607443544, -0.0031215886992355312, 0.3012040725873447, 0.06774134011525944, 0.1834341896199542, 0.20089650271366025, 0.08064304524152927, 0.007209843869580574, 0.07844271872120592, -0.1429207168829521, 0.03573607771428903, -0.006165648729921686, -0.13268587882944716, -0.21959274943732224, -0.13274687902977142, -0.0926926289022603, -0.011195730170467997, -0.014562866008908427, -0.015136077306356183, -0.004599206821810724, -0.005716317928065211, -0.022367729365689655, -0.08777914988845022, -0.20530424149931917, -0.29332954830446695, -0.16465684694340366, -0.02132085400972507, 0.043742603922140126, -0.003954532849738746, 0.10799844859749852, 0.2303052534797216, 0.14030843766568163, 0.12758170643203198, 0.03591347247055982, 0.049310332257041845, 0.1372168959489045, 0.07296784733020899, 0.031520559089465966, -0.0223626905516855, -0.10741572621280773, -0.15489113885754152, -0.09721190337062466, -0.13288517609687017, -0.022457826716286034, 0.01266318531861171, 0.007226539004646482, 0.0008231006439472373, 0.02216326591241825, 0.0027192705231475992, -0.012400578264281033, -0.04751811854796184, -0.14413093800091648, -0.24129196386405513, -0.18092763422455346, -0.22561823385065535, -0.06570259911537478, 0.028027296404952617, -0.025582923633557287, -0.03662897336474501, 0.08121095227168959, -0.028633975377953064, 0.1882611289577304, 0.08216934857398325, -0.046722281501050615, -0.09344020592987032, -0.026849543142780836, -0.04951096444443761, -0.06177159689944149, -0.05442403088860043, -0.18577972597453038, -0.13611337162091916, -0.04276043879977591, 0.018786092147305245, -0.0029300272657579473, 0.0009382805880094188, 0.0010851904202264766, -0.004829426025165926, 0.01612353775210753, -0.009725368976725707, -0.032627823909505374, -0.02050074432757972, -0.08372014022652692, -0.16766250478964084, -0.11193429684345982, -0.18030773146016033, -0.24328255603190999, -0.36227321763507875, -0.13254621331006866, -0.12992784904171362, -0.24398428017160734, -0.16609865471548732, -0.21747849378901923, 0.03312711189478187, -0.037145596663705815, 0.046517145939738214, 0.10789332610272986, -0.019490916246620395, -0.03210666678723233, -0.09673732390652816, -0.0029571776010327514, 0.013164719049084988, -0.03478169874482012, 0.013208130138088409, 0.015595722950027894, -0.030105719374605357, -0.0017835067381750539, -0.014844083928257897, -0.010509144217211556, 0.005700501014538605, -0.03334469408211294, -0.19769037710280588, -0.028824915024762032, -0.11646450430220912, -0.028470478118358195, -0.1037214304597198, -0.1748281571005829, -0.14390165151087064, -0.11488059592706805, 0.07837988556728882, -0.00030269216767043734, 0.02949223700050238, -0.0058525622431290815, 0.0014693913249867736, -0.04601092994741702, 0.03435665879675386, 0.031145700767234538, -0.016978817795328043, 0.014801301395471655, 0.009679010090018442, -0.004014090748044101, -0.0032545641286411665, 0.015522082696943164, -3.7609963566781966e-05, -0.02578299524235921, 0.0007019731085761849, -0.04874081242071675, -0.028319416549682806, -0.06109495224814544, -0.1652860795423913, -0.14950528729012041, -0.13378790085586686, -0.060196861190965296, -0.15861996173358972, -0.1614317394892702, -0.03131196447224993, -0.10041291202550764, -0.20443000458785715, -0.1671869716060925, -0.26075671785740334, -0.1921656626349241, -0.16274721867379655, -0.138554212133527, -0.06638062030660666, -0.0008824179239442536, 0.01867325530456886, -5.9034365380331674e-05, 0.0055546140757438515, 0.01824049232707376, -0.0071810504784973195, 0.0025973448970894536, -0.013453721483660874, -0.0036333450056399617, -0.014850700970775862, -0.027311772618982433, -0.06026354106645972, -0.07511373991317158, -0.10302315125977196, -0.13257086611368346, -0.20413322579571172, -0.18105878995357755, -0.1913810578453157, -0.1989274363924122, -0.3524438182069405, -0.32992682318366084, -0.30254549080323506, -0.24346179596059764, -0.23965831958858855, -0.2142963601442685, -0.14884034690490913, -0.14832197736118516, -0.050310555445118414, -0.005253037106396328, -0.00034924071915797103, -0.0082965623429396, 0.013373775280503663, 0.0032299547493821056, -0.01410105763610972, 0.03288839485496697, -0.00011690191482248736, 0.0026107678014140783, -0.005933946113820459, -0.0031836174536778203, -0.007483683708409013, -0.03910187494263833, -0.019492919545996957, 0.0036495530308849992, -0.05140266720198767, -0.018662677540017113, -0.04750697799467377, -0.01333206038621056, -0.06469947683281134, -0.03164142117522597, -0.011670638713164209, -0.023666429093644168, -0.0182809043916891, 0.006852427209710951, -0.013463879662236458, 0.0030681107250970525, 0.006249941621554663, -0.0006221439092678815, 0.012892820052624853, 0.00595324480324004, 0.0018409042045769864, 0.013172472045518257], [0.01020924682199057, -0.01157740808946866, -0.00620443301051324, 0.0067509922079178305, -0.004794673218172625, -0.0010220662863261742, -0.004074413425804575, 0.005952439788815025, 0.0025412922776943117, 0.005528576189308495, 0.00387928095293099, -0.0028822854855575625, 0.022377122775263818, 0.0003708940989069176, 0.01410146102608203, 0.023944635148784265, 0.003292787057517745, -0.006331175684185717, -0.006929782443208412, 0.023219316323878515, -0.014842341763864734, -0.002562245887544432, -0.015244006347970804, -0.008732569861284414, -0.00961992826337257, 0.01046289199249477, 0.0005158938214072246, -0.005469115962775587, 0.008384353358359815, -0.0001316712109975667, 0.005177268210877369, -0.020969278029535483, 0.015757744655333854, -0.002513738997422294, 0.0006660457436631048, 0.011470289951819014, -0.0014786502015832733, 0.017261434426239137, -0.023187164015120863, -0.003240816945250393, -0.010375332896460917, 0.024527664320760163, 0.0032971224074667435, -0.020904315153274147, 0.016771888476300983, -0.0033569706948327386, -0.011455170372758177, 0.0023753970645860093, -0.000148978384659658, 0.012125127271649355, 0.0010331946535370939, 0.013392788404294026, -0.01941964065766646, -0.007902414430846017, 0.003262056493549096, 0.026612874453210925, 0.01045582038756607, -0.013372305366422298, -0.008932652601249109, 0.0054472565391391085, -0.009008196081271952, -0.005148091754347368, 0.024718116814590026, -0.017977351689722684, 0.003897312842491062, -0.02746266510503187, -0.03207544477801204, -0.04633361682000962, -0.05029607320191641, -0.043886292513978624, -0.02930841276554679, -0.04327177594791501, -0.029031465499410932, -0.013547900574927524, -0.0361597306333543, -0.020983117807524765, -0.03274045525736469, -0.046922090208686616, -0.017639013051611863, -0.032557073843893475, -0.0011615619922895615, -0.015284141314627185, 0.0042153787297613135, -0.003624666145721722, -0.013624400149442906, 0.025517124419238518, -0.010569501352438962, -0.007555134660513545, 0.004096977420310534, -0.006210787815543647, 0.021618470487052944, -0.026116867615028294, -0.04742967781293182, -0.06503559187189592, -0.06782771023397294, -0.07274135155252975, -0.0065694040733074895, -0.08489945944788625, -0.0983120695553928, -0.10445777340447499, -0.099424614991171, -0.11895588745118647, -0.08662420461329481, -0.07317400875276901, -0.05709771338140102, -0.03029628367701774, -0.03943879206112352, -0.06634546162695595, -0.07197765624188204, 0.02465221286579168, -0.007105358813373628, -0.01814523740330259, -0.020555523109464097, 0.0017526445359419324, -0.003278738084040795, -0.016214476705110063, -0.007145104092166669, -0.022501544505853233, -0.03735311549667361, -0.07137465218358297, -0.09849685841121118, -0.09844061509425019, -0.13918731210489224, -0.04666977284818573, -0.08195957093222168, -0.13485999021362732, -0.10489111416443979, -0.08445623884005732, -0.08919983271672703, -0.09979912795062998, -0.09456966455228191, -0.17872815455624913, -0.21455096428423623, -0.14960301804928508, -0.1256979296886379, -0.0668760342241722, -0.011104357727643751, -0.01653450108750144, 0.003107933015989123, -0.012579469047745472, 0.007275132041120142, -0.0011387301241077956, 0.01760185806251337, -0.012874980595587183, -0.0017522816325834716, 0.002547541867518724, -0.04313534897923095, -0.09868868857400645, -0.13748668809630196, -0.14789859277051118, -0.1397002254638096, -0.14433566387510524, -0.11988817259191692, -0.11437401940202141, -0.09192841040956518, -0.13739156902657532, -0.10334659455706352, -0.18057951488900473, -0.23757764792046027, -0.16029339747031662, -0.07031885942318471, -0.0796425087149331, -0.020836331572745538, -0.051874882389268295, -0.092386298441315, -0.0029306013090039593, -0.0211837857388555, -0.010890485048786631, 0.0005818675937329905, 0.02022178814938983, 0.0072933979106321305, 0.014972725240540607, -0.025576184157684683, 0.04366567970183948, -0.03764411792099833, -0.09896074218706423, -0.1160267944972349, -0.1277813147211227, -0.03086435164425927, -0.006687921581413586, -0.03126855472244193, -0.10750842665714216, -0.021780154483724574, -0.1025412562333162, -0.10639849585059138, -0.06349967266742615, -0.07051348248012247, 0.04621545188763932, 0.039725859746463664, 0.06868710609740807, 0.1276654036916786, -0.0014543218202111494, 0.10502629029121843, 0.011931112776169315, 0.027374703584571253, 0.00013227416313097025, 0.01360846532806345, 0.008311872076207344, -0.0004443015257485033, 0.03168668755857257, -0.018477475582711934, -0.028839789016301735, -0.04045761644228483, -0.07384578912890168, -0.07772464723906373, -0.04442347772557088, 0.03258536621299041, -0.06543139450419432, 0.05261293037819799, -4.034182677033196e-05, -0.06326092284868719, -0.09674489370430295, -0.030206058418764684, 0.03596152539971699, 0.07844025027180243, 0.008085386917794774, 0.013415465962079272, 0.05231194233966039, 0.11118613446636302, 0.10628384336638634, 0.035038016896951824, 0.03662658454662039, 0.013508803420756341, 0.00831175759718608, 0.010691330685605432, 0.006651883992317087, 0.025733493844407113, 0.02305895026803728, -0.010813158688284984, -0.0316213369511382, -0.09054592810043449, -0.047985304763075755, 0.0627476062924648, 0.027192741906028932, -0.005724415826046267, -0.08717498296318972, 0.029753727953039655, 0.02591506898019688, 0.0025079583268893665, 0.008041555437915427, 0.007874098406629532, -0.0391134977815928, 0.0455369065687095, 0.06767861166917363, 0.16899996394230526, 0.04597615690790061, 0.11314647131863505, 0.1750306118404121, 0.11601188147049675, 0.01901365137399017, 0.06630777511560985, -0.010203099447933992, 0.011123012016239787, 0.019419958766488065, 0.005830778938617291, 0.03204804633183032, -0.006188339051735213, -0.01533439515878852, -0.04890560933827175, -0.03832825730001375, -0.008970061088804604, 0.012276823918785741, -0.03845641756767572, 0.003154437863081683, 0.08149611939936928, 0.0983919169765526, 0.11800883486871341, 0.16135877998784956, 0.12824378647419332, 0.28176801368926135, 0.20350095015556183, 0.10691277408909024, 0.09070789926913697, 0.19622977025950367, 0.08496942596856286, 0.09287053710066821, 0.1424816854177981, 0.06533638438900684, 0.03466629377316922, 0.016801803640701843, 0.02158562774923888, 0.046607668902465725, 0.03225194116655834, 0.046183412827871966, -0.010885675590433736, -0.06594855775751904, -0.018923502631019672, 0.06662577107791627, -0.01393223700926985, -0.004541325544715257, 0.11495523222702676, -0.0016875317746545381, -0.04451283523757231, 0.08144780703577892, 0.022128491683075676, 0.027364708821921054, -0.018439654462139774, -0.044035533080820234, 0.04315410148632781, 0.10645378961388895, 0.07086110274258837, 0.12683290897406435, 0.11298202734964236, 0.19478635799309454, 0.31616696671816263, 0.2644338132023828, 0.05391712700336085, 0.01781644671560468, 0.009150068165158799, 0.010974155181485312, 0.011740443969172074, 0.04171669078119456, 0.025331560425879137, -0.07854608730550644, 0.03552178662258228, -0.013850822912733428, -0.06117553514914219, 0.03864685359166551, 0.04690160331326454, 0.10973250421055379, 0.13133744104855677, 0.04745103834539335, -0.037998797450274506, -0.03543083262147239, -0.08845367777167211, 0.001986935130108365, 0.026369638641506096, -0.01925311125524111, -0.021114999072317932, 0.127812889402399, 0.12228441914042561, 0.10832640727852885, 0.12623841266463645, 0.27318805018025405, 0.06756365295953101, -0.004074349125049157, -0.022929766049883817, 0.010211724719882928, 0.003134847322416488, 0.008804195188371083, -0.031700489430695276, -0.05864764550114703, -0.039819886659981346, 0.01771427687929887, -0.06164097739153349, 0.039515264474180994, 0.04268284486900578, -0.030420299403479442, 0.11043915128417538, 0.15652141820003954, -0.010244683212712815, -0.024762648632833506, -0.19293725177819754, -0.3351974458424959, -0.4128351359141908, -0.4659367579728266, -0.4852031266401689, -0.46338306443394034, -0.4217054088275581, -0.5127687113616968, -0.35640741090956113, -0.03576924005828921, 0.014062393377392568, 0.00473799602602989, -0.0025368966976428826, 0.0036099156065300775, 0.015509801040462935, -0.04705047250815646, -0.08054861060854059, 0.07550078079440029, 0.0192373832661883, 0.0034619293661282214, -0.022315047692257412, 0.014055761483228128, 0.055260248074580284, 0.06010878510972004, 0.039620715779921656, -0.10091820334641215, -0.14038584460064407, -0.12523364870717787, -0.0793303057356958, -0.11206781159484455, -0.10685290077075256, -0.23334518864817655, -0.35458433710779924, -0.4804163520252154, -0.391409359951703, -0.47877349895082005, -0.32894560612947266, -0.050701166164566554, -0.010270504854291696, -0.023415389839387606, 0.006545846957738592, 0.010567832048552335, 0.014069025024047244, -0.02274626321845727, -0.03829723606885642, 0.14024013865409496, -0.0056027864696175525, 0.02439663360673556, 0.005058339939938764, 0.03912605861187906, 0.042972018435641884, -0.009469695165961248, 0.02136750802335348, -0.047766848212826084, -0.10810273078814758, -0.09397342049022958, -0.027934920667006688, 0.020242887543696464, -0.002568532039374711, -0.05388479646601637, -0.1902561740480635, -0.33206617059136984, -0.26955899629966074, -0.2263897332880675, -0.1996303888963014, -0.05534367194122928, -0.011631588673942308, 0.01825008798808648, 0.003820494313910373, 0.01640454864279374, 0.015815279211165174, -0.01879749494337573, 0.008987288330209838, 0.002475860710574909, 0.0797808377701494, 0.004182312298526513, -0.02678900541019342, 0.045702027564115545, 0.03983596744843766, -0.010677871880441066, 0.053389824844162985, -0.16366331144294258, -0.130884309926008, -0.050275702275177296, -0.13119319939611881, -0.0639037000641845, 0.0100782977431497, -0.01058303447901792, -0.1091934168915276, -0.1315292531696135, -0.1901659313844349, -0.1230670539485008, -0.14028585954286843, -0.06629469277800452, -0.018775876749970926, -0.00759659728793845, -0.0018946083659041044, 0.02749404841745475, 0.007758276360837329, -0.013056401624356836, 0.005346462291780539, -0.029315771105330117, -0.0027120942936509794, -0.04548128348124331, -0.0306041494108451, -0.034824150738632945, -0.0789515052610922, -0.11275829832434234, -0.07916705871934789, -0.09608152692352888, -0.11716993937346597, -0.03099211597879895, -0.06771229864349587, 0.01891104052618782, -0.04807731430462371, 0.06576640710569326, -0.01499515367904728, -0.12024412936790327, -0.21917497918011397, -0.1321262343736402, -0.1190291613144045, -0.09500446196818929, -0.031751757645391857, 0.020020359844260538, -0.0004581760134453927, 0.016261092297168187, -0.009382753577755351, -0.08495155877758287, -0.07917139781372301, 0.10929871243076504, 0.006998559471995851, -0.07358181423320338, -0.05351117878211536, -0.038841661912493906, -0.05336990271352705, -0.10713051903875051, -0.08356238132588914, -0.06612035185295596, -0.039959057340647655, 0.06354269925497362, 0.05331874454689983, 0.10046044567829085, 0.04365120468238602, -0.07116111822342512, -0.017264868074470682, -0.14244102541168854, -0.14760959359079345, -0.04003412794757373, -0.0790102108884606, -0.0855147210571868, -0.024074534359071517, -0.003023509819055375, 0.02828584560690082, 0.0012430833027899778, -0.014601352437217741, -0.09413617006068904, -0.08182108763322217, 0.03106570365416631, 0.011355714047339531, 0.08408060140365321, -0.02619824197942104, 0.011169828927531497, -0.08330618314294547, -0.031991688688203256, 0.03249694732943022, 0.045352769864526875, 0.005787319575177043, -0.02209710125635799, -0.004392932523515992, -0.02281089246036422, -0.006912372391541507, 0.031035144279207044, 0.08087650906307473, -0.007380988694464819, -0.05128931015045742, -0.06126824544764971, -0.08041175574492555, -0.06283404700898289, -0.003458363099732873, -0.007966651683148512, -0.004794649597568103, -0.006993002257746113, -0.0015591339111192233, -0.07763764743425271, -0.02016302251878027, -0.06147256007581272, -0.06084419103451287, 0.008543066723853332, 0.04402649462471813, -0.036880371918407685, -0.027856402764397832, 0.03587378674003774, -0.03974794679620317, 0.0006478359146848328, -0.11205240138025031, -0.025283757807995324, 0.0021698072286861275, 0.025824889783818156, -0.004292772788458768, -0.0146906385523387, 0.032691486516066286, 0.020220127415434625, -0.05603392071611637, -0.09565927425636046, -0.09049158904856583, -0.04858159739842717, -0.021500235293690773, 0.0006593459415192899, -0.004915636441685318, -0.0064164364180446425, -0.011281985670484633, -0.10520704053248184, -0.1329941571349911, 0.016816992671727128, -0.017819503755618096, -0.026973706536554152, -0.022091946829652192, 0.0007162526589008003, -0.02306440007132344, 0.07123545186010947, 0.0033208388283748657, -0.07816684408473187, -0.0462734687850252, -0.05721019733046601, 0.024080746123850676, 0.04655437468664945, -0.01796423333205197, 0.007948278842315585, -0.0249894739470326, 0.023314557379895906, -0.07053341031962095, -0.05348357191163501, -0.06963757210089806, -0.06406284043743586, -0.00774817856577874, 0.00612860394006206, -0.00921428568333553, 0.028173901462061193, -0.028523706755910774, -0.11781340090184042, -0.17022458049106823, -0.1291599894752415, -0.06463543651168566, -0.10439249212644572, 0.00962705610357375, 0.01695542431736786, -0.11772468027894344, -0.023219195615766762, -0.0635811566188848, 0.001126710844831368, 0.03699085741760801, -0.038774101550334616, -0.0609149777272469, -0.010685851223334004, 0.023503151427962395, -0.04620217624830924, 0.024930628425013826, -0.02151587499789279, -0.09242853772344403, -0.027852786293428917, -0.041109632340023655, -0.017369225946055018, -0.031668569218375894, -0.011767664980813237, 0.0082985564840707, -0.011219641536907679, -0.013423983264907737, -0.025149964527029164, -0.12284782997247068, -0.10421506717743009, 0.010310718062998289, 0.03632164427461386, -0.017228545189032902, 0.020790414284681036, -0.06220746116110045, -0.04725664203355178, 0.08106124290478113, 0.0030857560093893, -0.03827575101406389, 0.0743988251178367, -0.03637531945575159, -0.02017123583412215, 0.03466833121796461, -0.04124193501705031, 0.01444452289659519, -0.039616254947592314, -0.052003766862642166, -0.032522420425526194, 0.002509354867481683, -0.016276757806849763, 0.002739347146183271, -0.0015494971768694804, 0.009896231403818843, -0.006276566550317478, 0.007098137013107698, 0.006049646890493712, -0.025219357001514894, -0.016246786105257604, -0.032848834214045226, -0.03793605535251135, -0.05887578138506061, 0.03725616039584309, 0.019492854430042245, 0.1071132958567068, -0.04700034585822828, -0.0943610888421954, 0.06331355912480385, -0.06334726635313365, 0.04355426129988229, -0.07269306952875837, -0.02439414943383023, -0.013506115389342464, 0.045566147583750286, -0.05378390897571971, -0.044474666010404, -0.013669628958107692, 0.038184803322111736, -0.014171044903898517, -0.005623088971415782, 0.020103111929963294, 0.011764170249467047, -0.0026449604666431547, 0.003910916884220894, 0.022152959074691964, -0.026079374316136328, -0.001033738385764172, -0.05031309836164137, -0.028680243226968792, -0.05273230281344301, 0.011171575667438722, 0.05207885951229255, -0.010675306421011188, -0.024745327611805933, 0.08793223743856897, 0.0027878854835823625, -0.021556433002533997, -0.05079413466615458, -0.008887032817929567, -0.04698613591354358, -0.07777074044668192, -0.06976002116975509, -0.02644273463850125, 0.0034523132912825695, 0.0035684006813230143, 0.029068003377766896, 0.003150894120206107, -0.01310129291588616, 0.019506734989108758, 0.003457630835989049, 0.010251807592589533, 0.01327079519076176, 0.01316648113109469, 0.014812470495266239, -0.04696433289115001, -0.11727718205677251, -0.0662578911027012, -0.08523880684035871, -0.0008197595882097505, -0.06256283875554598, -0.022518829842469855, 0.02397161327625945, -0.013162325899219932, -0.03802118263185838, 0.019257543129342806, 0.03417770519718263, 0.004061543018245995, -0.0006117878616017618, -0.011353053606469507, -0.06061713068059314, 0.006608789778517658, 0.04095819372366716, 0.014274950197513884, 0.005016266374587505, -0.009022737968604973, -0.005643800851492875, -0.01585521123267283, -0.008205347015464886, -0.018828319892747743, -0.006351908615618268, -0.0033327035131575163, -0.02160371821732726, -0.06680306349047087, -0.11040250623922714, -0.1608663495416498, -0.14611476156348585, -0.1525006616283307, -0.14981143914540299, -0.08180690501463093, -0.0218620801390918, -0.08198845522372085, -0.20719808667425746, -0.0014566484557033631, 0.017996141207772588, -0.08628536426615317, -0.05653319298064141, 0.03649440010764637, -0.009171247750560775, 0.013409661010844284, 0.01222296080841589, -0.011161390742313483, 0.008097237777219907, -0.020394460631495928, -0.013422216440785882, 0.0077255421540197875, -0.007847727552229176, 0.0038121480007851836, -0.016522388218084674, -0.007849326767630392, -0.0031746099762046307, -0.0207530741922852, -0.012396317238702157, 0.00133679130113677, -0.03470401192719412, -0.022961949499299382, -0.006864323409142439, -0.022071174009667724, -0.0397798564986354, -0.016396189262242136, -0.04505404076598271, -0.05954145034960866, -0.05105933767950538, -0.02604537902408318, -0.0582446793028386, 0.01426463778692283, -0.03824468665890821, 0.0008077659345775257, 0.0057064271911233914, -0.0004732513200310467, 0.010879671196817287, 0.01060479284582542, -0.0014123471302516513, -0.014831297028892413], [0.0023645253431865297, -0.0007482535054534581, 0.01273008582484497, 0.002803002593766455, -0.0034768219044057375, 0.013896517657470991, -0.0060987901286069, 0.008357353883655931, 0.02297258404992989, 0.007326357540647928, -0.01074763672963294, -0.01170217062627317, 0.0174209424407844, -0.005013163615453969, -0.009509518479104011, -0.00626895378160427, -0.01958593762670139, -0.021268338316769775, 0.0189909871049403, -0.017733839728899616, -0.027138869141220847, -0.017443677214649685, 0.018735242462976743, -0.0008342034431507652, 0.002616884133001333, -0.0038829129926934818, 0.012158118833145961, -0.013189945181274596, 0.020528096397537075, 0.0021392003755894657, 0.00010915497436638602, -0.009165335454306528, 0.03078082446006242, 0.005853679372305544, 0.00922048858523021, 0.0032344260046601155, 0.025773337107215067, -0.0034756284057322604, 0.007518456804229107, 0.023449050162851506, 0.0059880909930002165, -0.010059740485800092, -0.02466694094021809, 0.0012116546180242296, 0.022960794039677587, 0.02886542247095601, 0.013157322217389838, 0.008001039468286631, 0.0043874747555189934, -0.0033925954808928754, 2.380968015503729e-05, -0.003128526658018812, 0.002824602379321665, 0.017236107256406372, 0.0003586208333821164, 0.012028998375699096, -0.018346029738073213, -0.02688918341329837, -0.0022041351172119275, -0.004869875657337853, 0.005169986461697565, -0.011655081879422326, 0.028096452816598342, 0.017406001481023066, 0.021874071873610776, 0.010560873643684233, 0.012830875353112841, -0.011348721569662993, -0.007088432040645353, 0.022275424080093805, 0.006897946951739725, -0.0008125121470652128, -0.0022455829403804466, -0.004751514579976249, 0.015710025278450643, -0.004066614261082851, -0.0026344076378329285, 0.0026471696593016996, -0.011238931990746158, -0.01187256985766667, -0.034090495049654515, 0.025221362457201833, 0.017961038702123556, 0.020321701490234666, 0.014444223370427715, -0.007234498374899063, 0.014174444479030686, -0.0006231308701432433, 0.013257122936586313, 0.012798837941650851, 0.0009749061813258875, -0.002524706941858517, -0.0061279247512473585, 0.013003532118944788, -0.015936937639457922, -0.011649850127048979, 0.011696139550338176, 0.035676434156090064, 0.009253651213323217, -0.018297662647231108, 0.0019071359373976997, -0.00021165316633495014, 0.005009020489402404, 0.005920155289687974, -0.009559929699327051, -0.0068535969004095585, 0.017673889436912046, 0.016759930365122497, 0.006340411139226721, -0.001150050515753547, 0.004292499238555645, 0.010310104094079573, -0.004089366972471649, 0.004954394400762351, -0.01809424369839704, 0.011944175936927105, 0.015198730501097778, -0.010108282901480834, -0.011697813392173977, 0.015732070973340995, -0.016118083560526464, 0.0018779624721576862, -0.018883204399536863, -0.0031862218676317563, 0.010171941443416075, -0.003170608390562698, 0.012088289902636714, -0.005930904693532626, -0.027817302212334416, -0.005941733191885653, -0.018311454304050172, -0.012818458749379587, 0.006510367641855836, 0.003704681232251417, -0.03794189946623751, -0.022363062030710874, -0.014070530364755366, -0.008041120189851312, -0.0027734842914691024, 0.0028432003022825537, 0.01942056851623679, -0.002828675003456922, -0.0176514441272924, 0.0025275997349750137, 0.0018171186911957633, 0.02361939622745917, 0.015189149933688258, 0.0065670172394805635, -0.014395630614146874, -0.010567452413524477, 0.007967002833420571, -0.003461282313218529, -0.005914037328534483, -0.0299965842651016, -0.004329338525150079, 0.020358254835470473, -0.010011569229699722, 0.017674413954346213, 0.007602462829530976, 0.01813214054008588, -0.02326649339066601, 0.004757578259093559, 0.03274741320042935, -0.011960699326411717, -0.01492675888522539, -0.020485049341616386, -0.013335414482554292, -0.018667684711272798, -0.016330340891184097, 0.018360498858796908, -0.007771025770014685, 0.0024001957621986175, -0.0032192851038726216, 0.02343512058622838, 0.006958315268169411, -0.0011423343462053195, 0.001776362192884003, -0.015850908931821412, -0.00854422434492979, -0.013241896321700248, 0.010459853897114475, -0.006097424131210424, -0.013078354098777108, -0.005825954928769843, -0.006540357347320225, -0.005702633394661616, -0.010665762448261921, 0.019559351384151366, 0.019132049262842704, 0.003574571682876965, 0.007285286740060549, -0.012023288688064317, -0.01810195913988391, 0.003899299913410406, -0.003276250775843746, 0.013486897721483992, -0.006064819472177268, 0.006503621122110289, -0.011209811278132973, 0.0019439174944330848, -0.01211084789998619, 0.012604085046434649, 0.003269434389654573, -0.0040940155084293, 0.0027483312707527775, -0.0038439890669377036, 0.008341410353472214, -0.007425796240177735, 0.019565405101296625, -0.0066224578628887535, 0.004984778770008114, 0.02742120901522848, 0.00309312005616804, 0.007284024984423863, 0.002027863060241546, -0.0032959015240470488, 0.021314554093442042, -0.028614859988460258, 0.011403777428772832, -0.013348436039519428, 0.0007272982266593629, -0.017402401425769144, 0.0028657701038293064, -0.00017916022486673996, 0.008134467138719003, -0.012900037221898386, -0.026682780892561233, -0.00591954187066144, 0.010203958538461667, 0.037974252965447534, 0.0038880075031380475, 0.025872569978502846, -0.010133583338778101, 0.002409722895390346, 0.015119075277195217, 0.006045089693791684, 0.018772949375048958, -0.0010484914134885465, -0.006239247569181508, -0.030322047133361604, 0.005588597664133363, 0.018557500198710546, -0.01314107881433772, 0.011343021727696773, 0.013351436347494602, -0.0012480276681391014, -0.006092911707860269, -0.014070180659916618, 0.006851911721986968, 0.010208684684125648, 0.017303591790024494, -0.0028600834468286342, 0.013310678199654886, -0.006539276852240198, -0.003260419312476579, 0.0005846082778681631, 0.010244683687287174, 0.001550800565159873, 0.010644613243661087, -0.0026328956750838847, -0.0052385801266989504, -0.02052527729187842, -0.007103966162536519, -0.006493688415129741, -0.010626026094797418, 0.009960433185149081, 0.012657756235215763, 0.01884600442894743, 0.000645948554225095, -0.01943337881960516, -0.007632641697627158, 0.013437883351428018, -0.0032897667989314934, -0.008929972924358568, -0.013789254244845844, -0.011158635629828531, -0.03441090486514771, 0.04822286869837097, 0.007511002874968637, 0.019040722010938583, 0.004543612783064504, -0.0038318705057312804, -0.019021344542354175, 0.004292764447274373, 0.006313020108727066, 0.01563788532669621, 0.018948568604946963, -0.010287618193817058, -0.0012747244609816848, 0.0036596556643937136, -0.009406088334383738, 0.009528529681372435, 0.0030388942510786747, 0.012762233457646198, 0.007731720095567893, 0.011605278182578277, -0.02588669649156194, -0.0014796834183034896, -0.020674455365890295, -0.001812842214334227, -0.027045537429683648, 0.0034492097524030903, 0.00974521961638406, 0.0021823714626321234, -0.005548816335600325, 0.006855841232263555, 0.012758527972651852, 0.011874916968334828, -0.009479819905420076, 0.0026071150915268505, -0.007815783447398823, 0.0037351077978861114, 0.0002649032465839622, -0.02100384126908734, 0.010483184871684096, 0.02291070181462796, -0.009639529536049369, -0.0014717921925151126, -0.0034157585986512875, -0.01868026073370621, 0.008061769408831895, 0.008101981811263351, 0.013433336106602484, 0.005971889459831955, 0.002008220484694899, 0.013540512645674078, -0.012696018547742778, -0.030229736459746505, 0.01980862071463921, 0.007527469275273613, -0.017314260997454686, -0.0013341307278861097, 0.019033079612509943, 0.01849300814373515, -0.005001881753226093, -0.026438458741620152, -0.025166492869102015, -0.0045986267191324625, -0.012784190576442284, 0.002225378925194256, 0.006164148518047916, 0.0010567932322397026, -0.010817197210834571, -0.014998746165915606, 0.0034539263335009694, 0.015653492018634117, 0.03521054019008841, -0.007756752965216977, 0.008221833733147648, -0.009287369884613147, 0.003740037487922922, -0.006546014222439644, -0.003165903066638769, 0.014113730273225577, 0.020412910258069863, -0.006385862111579996, -0.010643328393973075, -0.002075627127167653, 0.0029078092744700807, 0.025607860745797677, 0.0013391028180486705, -0.016316699898794442, 0.001189369342584943, -0.001554028488354895, -0.018832937339863326, -0.01595900737551599, 0.0028383442592040085, -0.013903697098509618, -0.007795125112672608, -0.007891129563007146, 0.007134414432131123, -0.0035896662586350097, 0.019453565194043766, -0.0037016951101836587, 0.01083836750318272, 0.026717057097821423, 0.002810909536701869, 0.006537536359917452, -0.02678669114483391, 0.002227041413499527, -0.010289890598798786, 0.017508718171119306, -0.010793162775105255, -0.010332937102715694, -0.023426408434780412, -0.0013917749402039335, -0.02785022194064073, -0.0064688606141567045, 0.01923066647027355, -0.013435682987457948, 0.009349331593684096, 0.005117204678222816, 0.011596621610993918, -0.009554391403408212, 0.003707102576396199, -0.00872253132237767, 0.022578951844448844, 0.026355834269264196, -0.0046566245384438015, 0.010855085007758529, 0.001351445388418924, -0.01775184320447959, 0.01930645815233524, -0.0012347562115733598, 0.0006483123049965543, -0.02835353515142633, 0.00614272905331866, 0.006337580393846909, 0.0003072154068219937, -0.018589199576781693, -0.012797407871388902, 0.002340623343819264, 0.0050223153386098895, 0.0038539213480837864, 0.008352958064066577, -0.011146691886666758, -0.009084274188745908, 0.0203348688476215, 0.01529000818296154, 0.002011810886257002, 0.01132073964883569, 0.004681095113589179, -0.0032462063672208438, -0.015743170863297042, -0.007884847313946905, 0.015968095697259464, 0.02149430609875372, 0.008302885006050208, -0.01535684339869432, 0.023801535393453855, -0.023969559914919576, 0.030808760055248102, 0.0015829109795521584, 0.010033921945222776, 0.004020567308905782, 0.004159740274252134, -0.0060282200881244755, 0.002032099430046507, 0.010422525924374383, -0.005317790643219413, 0.015486651966403897, -0.007559240094358001, -0.012494863007272818, 0.01580896196470527, 0.015665161053456306, -0.004973736377171746, 0.011483438608985451, -0.005955091806959894, 0.011520066164264462, 0.008182326394355524, -0.0003466987192448843, -0.019978047415043606, -0.002646461838438561, -0.010152210245667426, 0.010524193752743436, -0.00045400158129788325, 0.005018529976820142, -0.004926077461234945, -0.01481658228550292, -0.008244213618274298, 0.020248872458190254, 0.006031190565972077, 0.0006143003419050872, -0.00828959622765923, -0.011832998116952926, -0.0020729021550890425, -0.0012704861831554191, -0.018841997367965282, 0.011613415451119002, 0.013374178858081938, 0.016505546914699392, 0.013767228442884917, 0.008366130809716397, -0.0034004321133180057, 0.00887941194390314, -0.02588302105277082, 0.024136724425397754, 0.005248307553497552, 0.003551883418848181, -0.007200877446431284, -0.01086377971201896, 0.032554965571786686, 0.000378239107434921, 0.0042126084965290675, -0.009613828587394596, -0.008903813258717282, 0.0005615669115812232, -0.00037266196673820044, -0.009636300156688765, -0.0333048893639478, 0.010080899304763146, -0.02200186832765324, -0.013393244460198569, -0.010883506389478796, 0.020156720237366744, -0.0005047288199839528, -0.008393994577443359, -0.012806138421495663, -0.018130623778570453, 0.01958481749609241, 0.0066948339970166375, 0.015231844222467723, 0.015718523866956456, -0.00766248802205018, 0.010676258132882931, 0.020043751750279615, 0.027275409239075236, 0.01708443227005693, 0.004121766293622642, -0.013566471397277147, -0.003086999488670666, -0.02507614725924864, 0.011024372492690112, 0.012182901159404833, -0.012186391677953174, -0.01784621364797505, 0.010817481054771583, 0.026415502054805844, -0.008118299404162156, -0.0005821898465326637, 0.02055322069555732, 0.0061242637894829725, -0.023574888594595726, 0.004030888247048311, -0.026995908123212113, -0.004793736504187722, -0.010361493852857593, 0.015783672183669613, -0.01126883814343599, -0.016798393434364418, 0.014656654112581635, -0.007187859557661778, -0.004509506575419877, 0.019076705193938743, -0.0028495508164423193, -0.007845305028326212, 0.00120792252200694, 0.009424843126593203, -0.004950922933391433, -0.006449188823709072, -0.0038886371625853657, -0.00843374764517293, -0.005479182432789652, 0.007784214662123813, -0.012084298087276195, -0.023467960545762393, -0.006867354177978577, 0.012392177667147022, -0.022005414234392312, -0.01860646599881638, 0.005796768707348045, 0.0051953207060921325, -0.008046729303421022, -0.006057700790690161, 0.02385743598420763, 0.005493548060284907, -0.009599655705325654, 0.003159471975811908, -0.031863783484176726, -0.027518134726890634, -0.0016846156858568739, -0.003698287233480562, 0.0021000442682702885, 0.018610921003676065, -0.008037148190955135, -0.006152909707341365, -0.018959404843733242, -0.014029700832131026, -0.006207333119539759, 0.005926692230049085, -0.01083106616158272, -0.0075886692883950675, -0.011066855696130199, -0.009579220739955898, 0.017443470167451656, -0.004300786905624468, 0.04506010670991758, -0.007792841497532766, 7.811349528400037e-06, 0.005320518698065604, -0.009801074319204081, -0.010014282041746751, -0.008006285507810879, 0.004021726710213307, -0.011552212470845296, 0.00792525529923347, 0.018155988013388843, 0.018587284981470446, 0.009147461162498996, 0.0038510204265082763, 0.016701586685329287, 0.015230504991942484, -0.0030397290059527016, 0.0031733756696470158, -0.005111349153855688, 0.004806415482761416, -0.005791354432994229, 0.0009170688693649615, -0.02334298734525637, -0.02301391441226211, -0.006337911187567122, 0.006680140461396229, -0.014695042806646071, 0.003415978830820391, 0.001638850596704029, -0.004128334376217879, 0.007168258782061134, -0.004822707921070328, 0.0016679579388767852, 0.0024921202733193186, 0.00923114637253057, -0.0016663196836172603, -0.006882198199222142, 0.006313109597145741, 0.014175551927225822, -0.0028670437530109445, -0.0060116952302660814, 0.0014185366109203958, 0.00500494289174098, -0.002109367046680102, 0.022649040776169412, -0.015645462833873587, -0.0295414189884438, 0.0010729760015302575, 0.010633584466401825, -0.003464280480432673, -0.010408676504593213, 0.006492182732528475, -0.001866764943088774, -0.003471303822407213, 0.0097734762054893, -0.006323897007947939, 0.0038280207114639603, 0.0054571421133500055, -0.005960440842119322, 0.021911905598090486, -0.0064091091672272196, -0.011736471707751248, 0.006858406327231065, 0.005298535733569475, 0.024373853704667645, -0.003197974408246026, -0.008207279641509272, -0.0020091539346359343, -0.004106463002443325, -0.0016547343322337355, -0.022883915496738804, -0.013447277710750856, 0.003944741371773461, -0.007483853409843907, 0.019548216831896528, -0.009560827628428399, -0.0002842387452404254, 0.011216697522397982, -0.014579770389631867, 0.00714803990662827, -0.008471260132039667, -0.002867840471130013, 0.008851481014131529, -0.0006800240054692326, 0.02621084343261175, 0.010503676801860182, 0.005089556320288455, 0.013383687221418944, -0.00073665748841111, 0.00959603513469736, -0.010033373894816643, -0.016867236809162994, -0.017854705983499166, -0.015648848004143557, 0.008026412379445274, -0.0036203126238644663, -0.011596172679446671, 0.029758781475390468, -0.0008728276064553218, 0.012387651574379047, -0.0017250479800786553, 0.03192334658900698, -0.006096286472668621, -0.0035130390690092466, -0.004244555547917137, -0.015247812579877014, 0.003413611317359954, 0.002738072351099803, -0.01031332305185868, -0.014798384652916403, 0.02013564165273944, 0.011863450598272075, -0.0006274948073993059, 0.005137258073160081, -0.009882422548039475, -0.006819193088271204, 0.0010645034072045395, -0.008710613780988027, -0.007956635468226423, -0.0017468622251867521, 0.0027321702384262496, 0.011760401706202425, 0.009689059646206902, -0.011945979448746105, -0.003211236497799587, 0.005376122275566163, -0.02276179095340455, 0.027774516782058747, 0.01648347634718147, 0.0161596510524666, -0.010799203977958994, -0.01444445413106905, -0.0037049162286844246, -0.015183694598989071, 0.01222104361228148, -0.0037804436949217556, -6.393248116642835e-05, -0.005115340437237655, 0.010561132020091854, -0.007585490077130457, 0.016528228614325766, -0.0053656312159165625, 0.011690764073261523, -0.002443606574216025, -0.01795620345639767, -0.003637468290918669, -0.007133808936308481, -0.014597363310030401, -0.007428968129414767, 0.02629894127910433, -0.01359568020877679, -0.003963794993548351, 0.0013484537494343786, -0.011857332632717136, 0.005814216212418457, 0.007930011476996533, 0.02251655984613412, -0.00241808266238373, -0.0060584412822082745, -0.015401234405213522, -0.012083486737922994, 0.002995293924560474, -0.0020721145653119365, -0.017708944050095363, 0.0077285809613492715, 0.003357207780277456, -0.0026489669379218908, 0.0029371786263102675, -0.0010970870413986424, -0.012606343821080099, -0.00853651966095056, -0.008019627672682548, 0.019868285955160693, 0.009791682538330697, 5.273685654818244e-05, -0.01097841028051024, 0.012374570210347562, 0.007828141531922002, 0.00844742985041202, -0.0034487835765525804, 0.013153571518378858, 0.014878146867472778, 0.014831430266932963, 0.004066885823348037, -0.009910950424240759, -0.006094817644379217, -0.0029583207096752807, -0.0009706059432760816, -0.004272960231994669, 0.006759938951623223, -0.01056883086461906, -0.0024590674725681206, -0.014451590390089494, -0.006457700984264567, 0.0010448376093059196, -0.0046079065658660425, 0.03349838426740732, -0.00799645115491823, -0.009740960783395189, 0.007075482372008961, 0.023574846079870447, 0.002197490336147584, 0.031099791050745347, -0.0021980306435533704, 0.023596512070418522, -0.005658813496803816, -0.011618324732920474, -0.0035556915510057043], [-0.0018632546474937923, -0.007164345196248717, 0.008864936974745188, -0.013229077217805809, 0.017490073236055323, -0.018251013852416766, -0.0218147710148217, -0.0011962047893260533, 0.01683968659932364, -0.010778073615345085, 0.011243082535299067, 0.020696420816565825, -0.010318284243860854, 0.027333481341903974, 0.0020006189957644913, -0.01575028894676331, 0.015706559830330136, 0.004098702247416574, -0.004423119819277585, -0.007034311671108761, -0.0009925921018846167, -0.019738575412578178, 0.015497135387517052, 0.019820356334158223, 0.00792129276099768, -0.01121937621559931, -0.028965328320659903, -0.02152693528166646, -0.00016151399870425779, 0.006180581788788996, -0.02008532071951674, 0.006210443189653576, 0.019155973988326327, 0.0049570051213840794, 0.018988827049766645, -0.023104037959915977, 0.01066773549907049, -0.009049120163397135, -0.014337543325689104, 0.005746592303503084, 0.01973731207074035, 0.02436030091244435, 0.014596373626450406, -0.006723544885904339, -0.03444051793326188, -0.012826528503473905, 0.0017854750911345813, -0.015469010380212735, -0.0021621414421516823, -0.0026722892600390593, 0.007177736743452778, 0.01339554042997159, -0.00404361178251295, 0.028097851119686403, -0.00987085621328454, 0.007749047819137485, -0.0015456524887609185, 0.020509035073919702, -0.009148651716804512, -0.008780096979631313, 0.0057989445445563855, 0.012968983673431573, -0.014076269336499109, 0.006378469654125166, 0.0021418115587361116, -0.03877867863083724, -0.028560174778212787, -0.056572311287173445, -0.07212799918201847, -0.07082637845254555, -0.09624969373938125, -0.1638911618010567, -0.17402806951713032, -0.12615589203333827, -0.10036522379391943, -0.045781099783176384, -0.046466596332523015, -0.018092416947437108, 0.007490665590974709, 0.013582587123676819, 0.010395859427096244, 0.008075081485052017, -0.004711643795973891, 0.015168086678060888, 0.010625009437689958, 0.004692122176562896, 0.011502531007817224, -0.00605481292170281, 0.004746734780041582, -0.026280982858794665, -0.047734206391872494, -0.04304343896948, -0.029822450904690552, -0.10420049268523907, -0.16018553362669186, -0.11933229056011474, -0.1582545850232284, -0.04089167789602265, -0.07396023127594199, -0.09820982141872589, -0.009395937938234426, -0.05207093968132055, -0.1777829147609145, -0.10184728628222871, -0.15908691751321052, -0.15388608926320416, -0.07386972570575243, -0.03631606572883064, 0.01723393993403285, -0.0008424473582009546, -0.030590391878236936, 0.014596422028529225, -0.011188753397662097, 0.01705170590788545, 0.0020631408702330633, 0.017483202895000216, 0.010464951134107624, -0.048111905397022516, -0.07376535820523396, -0.043665448029878255, -0.03727514786562633, 0.00267034310674081, 0.008715033982689257, 0.014505886386003482, -0.055456172131639, 0.003140171297149582, -0.0704068831074678, 0.05332741294056975, -0.06092420618631941, -0.0184259368531199, -0.03322778925089087, 0.02690253298670562, 0.0012963420478277208, -0.043729734620055416, -0.04182112759724114, -0.04152735571012966, -0.08728946868605199, -0.026299738913366153, 0.004113021090413552, -0.032432880126997694, 0.001600467940654508, 0.0023173096499763783, -0.015679124701926297, 0.014511854471675661, -0.007079378889698502, -0.06305971243202889, -0.07953330729061822, -0.06654514692272241, -0.042336355995484645, -0.07954528162087872, -0.003627664104819546, 0.030609337478152497, -0.02356444959625305, 0.03242571285888791, 0.07856568653183758, -0.04136413052733262, 0.018641015261188592, 0.0571654403695571, 0.04333509857585291, 0.050788384988079846, -0.022440587508122424, -0.07434181893402937, -0.011172464315990545, -0.05325325054907736, -0.12705140838478937, -0.07681527705624143, -0.014587864285385228, -0.013730333274678349, -0.004331342540840355, 0.00459407139671703, 0.011075755129764626, 0.011704771473887975, -0.016942229173253085, -0.027696235752386816, -0.014127307725233117, -0.00039591480691184667, -0.01916153813618168, -0.1320542361913284, 0.012257971874494084, -0.038466666884113945, -0.0337391798953397, 0.026289297446629552, 0.019803811329308384, -0.04117275746535444, 0.005077131408184727, 0.02128521372515638, 0.02780003617569427, 0.059014247371528064, -0.050686079995332096, 0.12638284795003393, 0.09931081564458176, -0.031160473525674134, -0.18563536737334593, -0.12989964316862376, -0.041200093414364584, -0.022517783983669677, -0.0010903775196275606, 0.002441902044626039, 0.01702588202963164, 0.008313638124492031, -0.018552702764250657, 0.0054507939607820145, 0.017512743753582645, 0.06210604202348909, -0.09378771480880986, -0.006077597542259786, -0.03602621103377798, 0.051335694122257414, -0.001969493358635632, 0.0056315349974884335, 0.05404021592238873, -0.030429688050612688, -0.036216036611554356, 0.12032236856956183, 0.07803403421179111, 0.09567832404602904, -0.03559690664974903, 0.03217935250362832, 0.05732952559012144, 0.08372347354107616, -0.10094882639021732, -0.14931578173345975, -0.08578835948275076, -0.015109377516507571, -0.0008117775347794995, 0.0019933261213770054, 0.029111229738873687, 0.006753350017739318, -0.054965553326847084, -0.06179276918585787, 0.030523323743266575, 0.009607770988043931, 0.030674722567403896, -0.006665761571511745, 0.020594022499921764, -0.02751976173288263, 0.09626031951654394, -0.06335793419801342, 0.07262224543546639, 0.013952641411190193, 0.14795150881534663, -0.0006378573277694209, 0.06370166317861739, 0.015606781680076991, 0.07590293400776515, 0.03371674006570402, -0.02395097069451743, 0.07575629026691959, -0.06762714245674607, -0.22150127730610003, -0.058141574076544425, -0.02601405814024192, -0.007563987129752118, -0.0025101328535640844, 0.010072552710494419, -0.004395202285596666, -0.061401768555607396, -0.05398155586904017, 0.025598143576815415, -0.03691990878999156, 0.03147045391999486, 0.02290103047904045, 0.027954364549884914, -0.03466316637405041, -0.00037304165544478185, 0.060874628860292296, 0.012538166447283042, -0.04140569322793778, 0.1036273480259726, 0.0627822869987311, 0.10046721324794743, 0.15347865073266723, 0.05811600969519567, -0.02379225355609769, -0.007606875228811475, 0.09726102006018487, 0.04844714889008994, -0.2527404831238649, -0.09862799078116664, -0.021865703038200426, -0.0014439857872359594, -0.009409282541760539, -0.008615783908871083, -0.011070951529473629, -0.06953231921732775, 0.0018246551481131536, -0.11982200757661034, -0.04692838751171737, -0.05971312905620063, -0.09330737150673184, -0.09081512944835422, 0.027893128492540546, 0.006599072080659947, -0.014280619750690709, -0.044451594497349214, 0.012514839067517646, 0.09229849975818574, 0.14641044359925123, 0.13902401158401984, -0.01815740314602927, 0.06469732997158333, 0.09302699919693708, 0.16796597409344846, 0.06170619100304227, -0.025468450414047376, -0.23720219262672382, -0.08493629622773487, 0.02291079663022871, -0.013306606859823895, 0.005746785680919512, -0.008326592202477922, -0.016095612441217433, -0.07383407844017242, -0.031229103677509595, -0.07229013189322692, 0.05167940171444406, 0.0038317990123440692, 0.001258646874125663, 0.024897601846489842, -0.008156864051639266, -0.0649471945090668, -0.008704281027418017, -0.16099532520035778, -0.1028470623686134, -0.2084042026491509, 0.05768318942597441, 0.035203842240185065, 0.037650597314929014, 0.08554183322842823, 0.07443717777700354, 0.08280866326735532, 0.003373471513402181, -0.05256242716051106, -0.14905068042826164, -0.07257077660189164, -0.01064945404793186, 0.00839302540081494, 0.014241521679419215, -0.014744122351791244, 0.0033539610974931354, -0.013261319858105637, 0.01207083918902387, 0.0757443752729806, -0.021866860033271682, 0.003270276033089349, -0.053534589992638354, 0.06065919412202674, 0.057057273560975084, 0.09273275322040532, 0.04110330336130453, -0.16201049948073298, -0.2433733096612738, -0.18616340201092688, 0.0010283125550141878, 0.04533043791378416, 0.07075327498325827, 0.06523476680209493, -0.021346568293390746, 0.08053391945136351, 0.07879714666617241, 0.10251926585426263, 0.014186195761266014, -0.030445134796024176, -0.0025659911131211996, 0.016293922177937147, 0.002376609012530719, 0.0029387930157133675, -0.04088786051487311, 0.06496382683793238, 0.099718185912979, 0.09848571950670024, 0.09710640006142507, 0.016577674841989277, 0.09124145776586537, 0.11587326559796736, -0.07497228138686284, 0.07078857039832166, -0.03778373521688915, -0.15109066108100347, -0.41060282018802663, -0.173806248195979, 0.09742840695985305, -0.040614711522728164, -0.049854891948971185, -0.02250592951962697, 0.05550043761838089, 0.029683796784113186, -0.011802233360870495, 0.061450347564373384, 0.040077785863050136, -0.0012477528474579948, -0.0021077464819639342, -0.003972164969844938, 0.013638254298087318, 0.012455810799935263, -0.07048228260610091, -0.04416444071284577, 0.16450575011275972, 0.08109303760327537, 0.0972048054145391, 0.0580081698282249, 0.060607331361224745, -0.005324256615660503, 0.029958308553781905, 0.08294329108649663, -0.09832211577583064, -0.24238425541323855, -0.32520517680407196, -0.14312985945273432, 0.04010777588310502, -0.07046746834463452, -0.06875251077977454, 0.03985321107539867, 0.043175805713364004, 0.014771325187859046, 0.09599538469515108, 0.04627707583694793, -0.007006308745437946, -0.004316190244553393, -0.0004886711457129191, -0.008778907432347396, 0.017878029737167088, -0.013871275296229238, -0.06406350718222308, 0.0063591608849533675, 0.10452304706643208, -0.03164677503849821, 0.170690514814093, 0.06488917592896552, 0.03815836184829463, 0.1241326209732063, -0.08719673935463759, 0.04947596711807172, -0.2309828481300133, -0.39848071211374575, -0.17106255414668486, -0.061362137023674726, -0.09683549650309961, 0.044924327044420155, 0.008696276367746648, 0.0347454808157487, -0.03499592119987449, 0.0054878893335862525, 0.05142725045229248, -0.0064670036511811895, -0.02118056735381909, 0.009469100865709646, 0.014724492864611503, -0.005398203492164965, 0.0057033516317801436, -0.02875202467026163, -0.09769119552219792, 0.012463232621211785, 0.037561204915310696, 0.0770674662843731, 0.09161552592666009, 0.09915885032936803, 0.024562619642284643, 0.06358450553858827, 0.016827897903097664, -0.0450775018987613, -0.4528134296616701, -0.3436749186593745, -0.029957318525505743, -0.09484886491442968, 0.0389937272919315, 0.03251814046382004, 0.03994545011708212, 0.03444034731221364, 0.00647415607591353, -0.00602586007326513, 0.003851536954100102, -0.03121694302031475, -0.054230988631191926, -0.020286254355359957, -0.002350651962704946, -0.025533871759504244, -0.014851222893081356, -0.020873360491845537, -0.11154462739183583, 0.03432080878101824, -0.020149953551087816, 0.021931801754994023, 0.004918920588875264, 0.017608086263224736, -0.04522618598806542, 0.06986452604121889, 0.03240936785611919, -0.17660180882426266, -0.39076659289177607, -0.15023686172820666, -0.1015651252372106, -0.012976580705665802, 0.03723759446040512, -0.08563690175380545, -0.05128611618051055, -0.003838767330618887, -0.06252695905805741, 0.07999071277841331, -0.06736855603862175, -0.019367886240906518, 0.00549813255639694, -0.021876976652517064, 0.025924832017557204, 0.001077113656003026, 0.00015860234188492349, -0.02555273096948715, -0.14331805259605115, 0.02794374932516402, -0.040950691366032826, 0.030011279274566736, -0.004873968579615447, 0.046951028578702425, 6.556387483601679e-05, -0.002175145210444126, 0.03974494992558478, -0.197084311189022, -0.15230551744194193, -0.17428676069525562, -0.03530850994955991, 0.002916981839001133, -0.008313510003789108, -0.035542397179525786, -0.025580327780704765, -0.08494951584295045, 0.014566646832656112, -0.0028543839743679087, 0.00774074997084498, -0.049820026016704, -0.01922931581486835, -0.009103592748848652, -0.0016203218952074202, -0.017931960422467117, 0.004128467677290487, -0.026323139499624972, -0.13024690272840775, -0.04934690431676267, -0.005257493694467367, 0.04463254848573688, 0.018618443039291284, 0.052191204124700796, 0.05078873126344845, -0.028876893388643132, -0.01443891592298059, 0.09125298964373657, -0.14430726817715037, -0.053379939086586926, -0.07692034909520366, -0.05236980122126077, -0.004232426084115044, -0.029594447348665513, -0.050804832667016644, -0.013318687664404666, -0.006811393925858963, -0.03237250081468895, -0.030539153260034698, -0.02877940684131001, -0.020907199602757606, -0.028736697961523786, -0.012356825359673218, 0.008843358694187684, 0.03032919324449062, -0.002939820094821588, -0.10784939144843203, -0.029214168692561254, 0.06576422116936437, -0.04332886050039835, -0.010150244652674884, 0.0782684714090551, -0.06300605110119631, 0.010716591761149382, 0.026021304358767927, 0.009517220322209528, 0.1063367793220505, -0.08555926855593579, 0.0028900973495847044, -0.12194317279736927, -0.04354305754851179, -0.04530932243605832, -0.10506687374544894, -0.09881039911214926, -0.054394485845842534, -0.03352016859348262, -0.0649336471304611, -0.023839346733332874, -0.01792396180695798, -0.008855106107200462, 0.00043552473893673083, -0.007201338270616647, -0.003181921171531785, -0.03647218219468172, -0.03782622517727223, -0.07835609875839966, 0.021267569953774764, 0.05174223267181487, -0.04043229404535058, -0.04092736128584003, -0.06205947599596553, 0.04473575839143653, 0.09530139789876341, 0.04822895120330157, -0.0700797773604992, -0.04708557303806629, -0.03310890709779581, -0.044349351768625485, -0.12323095744710452, -0.08305621918069582, -0.09033333452439408, -0.04487000911725803, 0.024603785357518705, -0.01824661343615929, -0.09477422479790333, -0.03576621285732698, -0.02079095718973791, -0.0037497374385510795, 0.00711564588278625, -0.021245333979324543, 0.0071065632897835155, -0.005230319064919083, -0.03659396047593951, -0.10721737187279011, -0.012546067983949558, -0.0014192154263965922, -0.06455858795931654, -0.008346553478553535, -0.008577491488819342, -0.01324273592951389, 0.044223410305439685, 0.04456122761016399, 0.15051305315675587, -0.042206510999890874, -0.013526713643780237, -0.07684176223599674, 0.03840765343836731, -0.027616062292730986, -0.007248235138259891, -0.017960045645295294, -0.029085256168004826, 0.0011054551276478458, -0.04550201696317874, -0.04925170941120587, -0.03448854604785156, 0.0033841087052097854, 0.002370662955867727, 0.013116534548668363, 0.007560022406272451, -0.007492621441723542, -0.0172584083614426, -0.04287903068131327, -0.008963782366348563, -0.02527355587494347, 0.008647661751634773, -0.06938327297494906, -0.04566702532899978, 0.04832625215500008, -0.005594040338001599, 0.008011823315265228, -0.02616447071928848, 0.09355979559688828, -0.06294987929257906, -0.07725609788482088, 0.036409177874498974, -0.12394248861458691, -0.17268778961415357, -0.1840086021063689, -0.05714831236182314, -0.012572697475708805, -0.07830248905111506, -0.08278501218864935, 0.013331732911150581, 0.004613840920739384, 0.001820751641371316, -5.202538888330487e-05, -0.009163436866033584, 0.013736290686623824, 0.008852154368560333, -0.002922707327860424, -0.01580356097378428, -0.04572117912008895, -0.10344615116119044, -0.06545106815874695, -0.0005917862937308773, 0.032651839144768206, -0.0797373644020111, 0.053293103582207145, 0.00897146117251764, -0.055696614550531105, -0.0073563799188745066, 0.022771073355846664, -0.02662586421672458, -0.10484909851697682, -0.15516720578762047, -0.14306828799092086, -0.09794158384847294, -0.06032797938045742, -0.11379722610079884, -0.040976401441662175, 0.04062481602645371, 0.004703214921506663, -0.0061900807738952904, -0.01549722182422867, 0.0001324800070747891, -0.014761273647872747, 0.01142989317229304, 0.012729690894450627, -0.014157210329291946, -0.057769937846637504, -0.04609404642870848, -0.06770826515276343, -0.041113068031216594, -0.1112666884420278, -0.08027621556036185, -0.023867654522807587, -0.05839845291284106, -0.09330648568076823, -0.08720277424546304, -0.09178508269827494, -0.15476112861837266, -0.1357876406914912, -0.12262948285516242, -0.08255244867272331, -0.022950617361608427, -0.05747412805476922, -0.04793684043679949, -0.027004933307759733, -0.0007345246301721186, -0.0069251079182442495, -0.00907967214876321, 0.01922041757568402, 0.008697724747443472, -0.0069303486263896175, 0.008716308077314144, 0.006797461413490318, 0.009356016817316005, -0.031148640908370096, 0.012496187510051887, 0.017370071326436753, 0.018344617425007398, 0.026895463864118854, -0.02285404069303242, 0.011630264938582158, 0.020882616514009272, -0.03283653846523602, -0.004756886804952409, 0.015638713250264984, 0.02931659556895322, 0.02024335222587161, 0.0006715123178178583, -0.017510202791174587, 0.014784592833083381, 0.0063706656825667516, -0.004707520593103421, 0.020122184398780576, -0.0016283463944773836, -0.002652320051689111, -0.024186046376880384, 0.003230222885367837, 0.0030926181719983805, -0.005280542555575911, 0.019990777785675914, 0.011411443101498744, -0.02623893737153187, -0.005191678483021552, 0.004071027964408825, -0.004125873091469563, -0.022872628172191566, -0.0033986778861166494, -0.02852641075801621, 0.0331500378858707, -0.001983097309297717, 0.009902364106572338, -0.004036613338021248, 0.011159963959804607, 0.027049091724349664, 0.019084321074719093, 0.006945893006599982, 0.0006993282516664328, 0.009411066585959462, 0.01064889574870634, 0.0058900315081470405, -0.016982513389779897, 0.0066857726911774395, 0.006794352315194857, 0.0014783805552949392], [-0.005247929313149838, 0.0006732350964090056, -0.02322219402378795, 0.013385515018996484, -0.01358955317882501, -0.016822449697767475, -0.0075709848051498186, 0.025203922052183563, -0.009046767144841114, 0.00222974599281076, -0.014513694341204444, 0.0014189909720177679, 0.00738556351108636, -0.01532428728884329, 0.01853747294186431, 0.02163106209582165, 0.007970888398313869, 0.0008759510442944715, -0.008267968766482324, -0.0064085889591345485, -0.0041432904297014315, -0.004470700518800622, -0.011641075677878235, 0.009756550471953113, 0.013189438365300465, 0.0008292629999442091, -0.016192196941180383, -0.004608519529873309, 0.001211071216746775, 0.010807001594762798, 0.016809390157126836, 0.002684146037439146, -0.018385666944701368, 8.699719059550863e-05, -0.015419383004778112, -0.0018593193009378954, 0.00024965986524183646, -0.011863393769717111, -0.011716638670595645, -0.029123570455819484, -0.01012649550558569, -0.0165302060083276, 0.008517264745632747, 0.014387020618001883, -0.06040745637566015, -0.011229749983686093, -0.007475048972713558, -0.02038129713116265, -0.012833350383664913, 0.008645742507038662, 0.014757045760970549, -0.0014348497085952248, -0.006418762064370354, -0.023757239167275887, -0.00774578080420866, 0.004554977941349063, 0.004220728604687932, -0.010557496022615633, 0.01047138429985737, 0.0064692560108395, -0.007923643204080916, -0.004887779158752885, 0.0009946526364396004, 0.002997778535418484, -0.006659231329197795, -0.01301419223145403, -0.0024501970878173965, -0.029198364083605204, -0.03291453812848501, -0.09044953977601253, -0.035613438151208356, 0.011300325958264247, -0.031391059291057864, -0.03744878338151792, -0.04260108042984229, 0.012324049330008795, -0.013984570463122502, 0.0243413898128466, -0.017034044306906828, 0.021090695117651312, 0.0003606601166344447, 0.005278956217794844, 0.006005666769574685, -0.016930040956697593, 0.0033653764648764765, 0.005998338278657099, 0.00396718786022772, 0.004655314500408508, -0.004131705140776129, -0.014916575649771004, 0.006853031675938547, -0.012191314663276071, -0.03540419249151147, -0.09938844842816778, -0.11746710223116844, -0.24340844976999812, -0.19665371243554305, -0.14242385752383752, -0.1552233738679658, -0.04413149270512282, -0.06909888718651527, -0.0012010840944148154, -0.08264602975846379, 0.029419705424730342, 0.059578504514291815, -0.04699273597323872, 0.0047801385658730764, 0.029236073096808157, 0.017457071597792913, -0.021668215225994714, 0.008111750165907315, 0.015119790675321428, -0.001551347022802028, -0.012052314516786735, 0.00031969976273309056, 0.00554169207713632, -0.0012909038298858386, 0.01711712453994895, 0.011297787984910735, 0.015306096988915337, 0.013343834251906167, -0.034129971653367806, -0.007564479408451543, -0.012454345719502536, -0.07800361369154364, -0.09536687200477506, -0.06924618368646783, -0.13712122564216125, -0.05316706320610778, -0.01271126056727614, -0.03446810483475315, 0.04942140125237211, 0.04065465913399372, 0.05623337338560829, 0.034499230842500554, 0.059738661967351524, -0.07482117063736911, -0.07736338180031772, -0.007013864898843604, 0.003901870941351275, -0.004330740077658962, 0.006897326663454273, 0.0021392321695290926, 0.004464038722744408, 0.010153877698182484, 0.014959948121513687, -0.029040866298983368, -0.060854054439116984, -0.1558624954303246, -0.22771276557870632, -0.22350968784703054, -0.1675012835959402, -0.0991894773218345, -0.06525040835952398, -0.09787575159359563, -0.07895879708617051, -0.14557704580380906, -0.26659586597545115, -0.12455439566384441, -0.1577227171529079, -0.06374629807429502, -0.012611588046700485, 0.054676887672557246, 0.028101369468057285, 0.043411420665598416, -0.13688409747762073, -0.009906261723044926, 0.023659283313662394, -0.0225491359152212, 0.01485627104585571, -0.0033581574440032704, -0.0009440088738381285, -0.0165033733671378, -0.044234984725713584, -0.10656103966056124, -0.19429561330792378, -0.2450839998028893, -0.14679406809357884, -0.06153810550233566, 0.015080237268228444, -0.10803592160055675, -0.11484524072290908, -0.07250019159921399, -0.11946725297167696, -0.07551090886464543, -0.08763051651290579, -0.02985937925458781, -0.09681706568124725, -0.047224822659818824, -0.06651428865775337, 0.03478929697367145, -0.0003994240502249664, -0.05719976560090416, -0.09829252832605784, 0.012451727034503488, -0.012270814828420743, -0.011594142696772973, -0.012203077391692903, -0.01764606255598207, 0.017802310272266836, 0.04513838631040219, 0.008192777755943672, -0.12283687836046461, -0.20254995423278735, -0.25640144661882097, -0.04767536079322681, -0.025393253111958253, -0.013506545509701888, 0.0663277471520273, 0.047566101449068254, -0.030454818946560894, -0.18624232797277004, 0.04870631199301316, -0.011788016515374247, -0.0788030342838051, 0.006207943100350218, 0.10376691453687513, 0.042032203674652546, 0.030630425525262732, 0.07720032664072692, -0.15160609070439277, -0.15899049512409705, -0.029029200416210828, 0.004872015388687352, -0.007669073581137683, -0.010135873208562506, -0.03394974628669767, 0.014917695883684532, 0.06301384820012944, 0.03341847551809246, -0.032102434079949296, 0.008032650059329216, 0.03076350804221353, 0.045644601002923654, -0.034798381461562555, -0.054254311616228665, 0.06918099763353383, 0.053501861558426074, 0.07883927370503192, 0.034901261701010315, -0.12448012593271408, 0.06781028933261067, 0.0772701815233757, -0.0046091017825460115, -0.041989825467106535, -0.07286075721212984, -0.005220320479453126, -0.15495026039171275, -0.21859836737816485, -0.10879564314454965, -0.00575015337052898, -0.00408427555018063, 0.0036932035445719044, -0.017119541839254085, -0.028581378734559494, -0.0012910643302918982, 0.001898601788906959, 0.0034534259814172374, 0.016174473346875645, -0.003969983330359997, 0.041241865989761047, -0.14529144503982694, -0.15225083194375158, -0.07909320851067443, 0.06112268403729848, 0.031351752546301244, 0.08002201002380391, 0.03197342413958796, 0.062065785040482276, -0.053462990812613305, 0.06411191467136419, -0.10974999732986825, -0.09288193877323958, -0.0066031065726098, -0.05378278018146909, -0.16886052789800113, -0.17954978692592638, -0.1281993900655878, -0.019269514578172484, 0.03460448646712707, 0.007017695303290909, -0.010492946596547493, 0.017297539489940866, -0.01981444131045748, -0.02107888353409377, -0.0559509335421267, -0.10850844965965713, -0.07968174731175373, 0.05128200954137687, -0.026166188196054208, -0.02223343121684683, -0.060689352143229014, -0.18606394841335322, 0.10575345314621223, 0.13774043422534174, 0.1718186099304978, 0.14576589989182676, -0.0210194011154996, -0.11782673503315103, -0.02965315584432857, -0.1544570845868592, 0.04246647706316274, -0.10074746001828261, -0.1717669132225438, -0.10629864810881309, 0.00971269408538851, -0.019819139475702106, -0.00447749103991425, -0.0015452218094953694, 0.01753567513424127, 0.027561053921145752, -0.021031611490666364, 0.002714641574251118, -0.10108500721502783, -0.2180514977447666, -0.1252954176203396, -0.005351670776574016, -0.07596188787670051, 0.02119194348099155, -0.061848501993280874, -0.0023900202652852205, 0.15336245455824538, 0.1821152427062343, 0.281024394875164, 0.057783777229883544, -0.027551746580248403, -0.024273371384593435, -0.10850072140872304, -0.1153202463581818, -0.015334305279164991, -0.16097380407195527, -0.1458393857335775, -0.12687694690842652, -0.06384823507653889, -0.07484106915544331, 0.001051135887708662, 0.00666054062053165, 0.0038425853960801304, 0.0023081221427221806, 0.003980747111727673, -0.022066944541699215, -0.1429679117931808, -0.18926238119859426, -0.08715225556145295, -0.12061776890431945, -0.0519331059806797, -0.0009886412104448457, -0.12109222846452075, 0.06308417325779887, 0.0164239091852145, 0.16106540182452503, 0.11253742554941581, 0.030423940936658764, -0.03736126737363462, -0.050215532755575006, -0.1429064161756008, -0.19859207602537848, -0.019101592477191728, -0.10665436994266138, -0.09702654549468033, -0.10021202754883947, -0.08047034787260618, -0.06256847950881365, -0.00406095590329695, -0.008253461795776866, 0.006567283855446498, 0.013184734542250906, 0.014348909795839068, 0.01062218208797047, -0.05364122762345998, -0.07811314355184928, -0.09392193097363698, -0.05453373680602276, -0.021603279683235856, -0.01658708753911835, -0.1508846672318328, 0.005901669329449719, -0.03689568312107423, 0.28281053231597086, 0.05666219029162803, 0.09990682941178204, 0.17811036009776027, -0.07018430661749689, -0.038702292305224144, -0.05652687471562122, 0.046639072325059434, -0.13356314591268065, -0.12936370117875584, -0.18513702709989166, -0.09153647115727022, -0.015536331175572259, -0.021587270220060035, 0.0022848676006997862, -0.0017498736545608713, -0.00181275990234493, -0.006815584333253157, 0.027132735258005188, -0.04031686616021938, -0.09154904601418139, -0.07200467744692263, -0.05682653345555339, -0.08032708213264518, 0.0041711823506946945, -0.0026707388954148536, 0.006420409867052592, -0.14141203205735212, 0.2638817575902894, 0.03533668551972667, 0.11277740937851265, 0.04207185777434374, -0.10103071738533859, 0.07769807893258815, -0.02193707515204124, 0.0168752852734422, -0.06166796481605346, -0.13342955451869914, -0.12221963109730791, -0.12841017232364652, -0.06239758868364804, 0.01135156137871779, 0.013013919314499588, 0.017698667998681514, 0.01609135105922558, 0.0034501165830611424, -0.002695442232044661, -0.0634298308901997, -0.02892204474099037, -0.01720053474634436, 0.04217170126037297, -0.10997395501997731, -0.04485524119418529, 0.11228077796126175, 0.041739576958734065, -0.03662026912118354, 0.19519555637775246, -0.02612305597198541, 0.1680415401209877, -0.01327183318551821, -0.037449545202941734, -0.032320151060228675, -0.035500065660954816, 0.03357710074742572, -0.12095322338330489, -0.2030548008080989, -0.19500984214397205, -0.18598148097910208, -0.07288771399521232, -0.003266331272093912, -0.0030916239984834187, 0.011035375542276987, 0.013837430306467866, -0.001518217195482615, -0.013444073038755753, -0.0006900739815785824, -0.017394858851102077, -0.06790849311076058, -0.07254141943824684, 0.07350460148730903, -0.041587528813019844, 0.04728613652245654, -0.017122929674489588, 0.10035442553406053, 0.11676329402679603, -0.0382163019109419, 0.0820184404790186, -0.12042802534930945, -0.030017489023658035, 0.04218019925042474, 0.04168048603316271, -0.08908818901999871, -0.19281205549673394, -0.2499426167562085, -0.21296806185711248, -0.17282577455736928, -0.05771109807281738, 0.00422091660705447, 0.007845430017333059, -0.020397664534453953, 0.006125418912065591, 0.00734661402277974, -9.43691042174438e-05, -0.06736124142048497, -0.0964372914808842, -0.19908431550415856, -0.09013671368123138, -0.08565698843856516, 0.04075024526601117, -0.0013816427525933045, -0.04705435805450955, 0.04951447442898249, 0.0537458441232913, 0.02751005106725641, -0.04884610599951725, -0.2409619735440234, -0.15255601012430703, -0.0985482121844963, -0.14193576638342983, -0.2041316727459585, -0.17714615389105975, -0.19368527720681586, -0.18377271907613438, -0.14649352311601338, -0.029230094757428726, -0.027714540818355338, -0.009827569756374097, -0.00958905621390155, -0.004571620782795342, 0.0009368573043277727, -0.023341663265299732, -0.115408142148146, -0.27446344363038394, -0.25755194181057584, -0.135737811485177, -0.1634630241229665, -0.10342825089958112, -0.08657998412452286, 0.08398825109448747, 0.05340441598570474, 0.09184221534884361, -0.12306312496358442, -0.2948744947540347, -0.14012253404751215, -0.2326967618057152, -0.2129711623298505, -0.2523310595447198, -0.20282222661831065, -0.20003539589397779, -0.19094498690785996, -0.20025189495350482, -0.04444647261063554, 0.02796742296766267, 0.009145101540915287, -0.03470580143724823, -0.0007761156466797055, -0.00692998954186342, -0.03438428339603111, -0.08511643909701994, -0.24231984600380735, -0.15235673510704556, -0.05779873419314955, -0.13050715147216838, -0.035353390549210224, -0.12190752420538802, 0.010193472023868302, -0.019672245214074298, 0.04104264489058606, -0.05614036421565543, -0.11356168288329413, -0.07124693574348778, -0.1461861910514706, -0.2029558195006639, -0.16107163201381394, -0.1811314450013918, -0.27147398423663976, -0.2513493300056858, -0.2245430417031475, -0.09410953113343354, -0.03006842082889744, 0.03756770288399279, -0.010696990584621575, -0.01476531707049675, -0.02438444843226673, -0.02662011030629744, -0.07993633783346386, -0.1367076827100052, -0.2525430675569829, -0.10434833603736723, -0.0918955457540667, 0.02669563327595544, -0.05226359974294668, 0.0038201477096199924, 0.007959243175713301, -0.05292424107316797, -0.03765985189757919, 0.030284987419778052, 0.028922767057289734, -0.004679853102490347, 0.04384733759265792, 